svm_type c_svc
kernel_type rbf
gamma 0.82
nr_class 8
total_sv 1711
rho 0.45149 -1.55885 -1.42987 -1.85848 -1.75602 -3.13548 -3.34778 -0.748361 -0.884372 -1.91955 -2.13581 -2.58672 -2.48366 0.189202 -0.722513 -1.19782 -1.72754 -1.14115 -1.1317 -1.30522 -1.54262 -2.34822 -0.752396 -0.343968 -2.46242 -0.532212 -0.349822 -0.323306
label 4 5 0 7 6 1 2 3
nr_sv 481 764 61 94 181 10 98 22
SV
22.07806732098179 2.459033725259769 2.888029556064962 0 0 0 0 3:0.0068493151 4:0.1369863 5:0.02739726 6:0.2739726 7:0.061643836 8:0.40410959 9:0.10958904 10:0.53424658 11:0.17808219 12:0.65068493 13:0.25342466 14:0.76712329 15:0.33561644 16:0.87671233 17:0.45205479 18:0.91780822 19:0.56849315 20:0.89726027 21:0.67808219 22:0.80136986 23:0.78082192 24:0.69863014 25:0.87671233 26:0.56849315 27:0.93835616 28:0.43150685 29:0.96575342 30:0.28082192 31:0.98630137 32:0.13013699 33:1 34:-0.020547945 35:0.047945205 36:-0.034246575 37:0.12328767 38:-0.047945205 39:0.19863014 40:-0.02739726 41:0.2739726 42:0.0068493151 43:0.34931507 44:0.047945205 45:0.51369863 46:0.047945205 47:0.60958904 48:0.01369863 49:0.69178082 50:-0.0068493151 51:0.78082192 52:-0.02739726 53:0.86986301 54:-0.020547945 55:0.43150685 56:0.12328767 57:0.43150685 58:0.23287671 59:0.42465753 60:0.34246575 61:0.41780822 62:0.44520548 63:0.32876712 64:0.45205479 65:0.36986301 66:0.48630137 67:0.41780822 68:0.51369863 69:0.47945205 70:0.49315068 71:0.52739726 72:0.46575342 73:0.15068493 74:0.082191781 75:0.20547945 76:0.054794521 77:0.28082192 78:0.061643836 79:0.32191781 80:0.10958904 81:0.26712329 82:0.12328767 83:0.19863014 84:0.11643836 85:0.57534247 86:0.12328767 87:0.63013699 88:0.082191781 89:0.69863014 90:0.082191781 91:0.75342466 92:0.10958904 93:0.70547945 94:0.14383562 95:0.64383562 96:0.14383562 97:0.25342466 98:0.54109589 99:0.32191781 100:0.55479452 101:0.38356164 102:0.56164384 103:0.42465753 104:0.58219178 105:0.47945205 106:0.57534247 107:0.55479452 108:0.57534247 109:0.64383562 110:0.57534247 111:0.56164384 112:0.69178082 113:0.47945205 114:0.7260274 115:0.41780822 116:0.7260274 117:0.36986301 118:0.71232877 119:0.30821918 120:0.66438356 121:0.29452055 122:0.56849315 123:0.37671233 124:0.58219178 125:0.42465753 126:0.5890411 127:0.47945205 128:0.59589041 129:0.60273973 130:0.59589041 131:0.47945205 132:0.65753425 133:0.42465753 134:0.65753425 135:0.37671233 136:0.64383562 
30 0 16.28594792791242 0 0 0 0 3:-0.014112903 4:0.12096774 5:-0.016129032 6:0.24395161 7:-0.0080645161 8:0.36290323 9:0.010080645 10:0.47580645 11:0.060483871 12:0.56653226 13:0.14717742 14:0.625 15:0.26209677 16:0.65725806 17:0.39516129 18:0.66532258 19:0.53830645 20:0.67137097 21:0.6733871 22:0.64919355 23:0.7983871 24:0.60483871 25:0.8891129 26:0.52620968 27:0.94354839 28:0.41733871 29:0.97580645 30:0.29637097 31:0.99395161 32:0.1733871 33:1 34:0.054435484 35:0.060483871 36:-0.21975806 37:0.12701613 38:-0.28024194 39:0.21774194 40:-0.29435484 41:0.30645161 42:-0.28024194 43:0.38709677 44:-0.23790323 45:0.54233871 46:-0.22983871 47:0.63709677 48:-0.26612903 49:0.73185484 50:-0.28024194 51:0.83064516 52:-0.26008065 53:0.90725806 54:-0.19758065 55:0.45967742 56:-0.11693548 57:0.44758065 58:-0.050403226 59:0.43548387 60:0.016129032 61:0.4233871 62:0.084677419 63:0.34072581 64:0.20362903 65:0.38508065 66:0.21169355 67:0.42943548 68:0.22379032 69:0.47782258 70:0.21774194 71:0.52822581 72:0.21169355 73:0.13508065 74:-0.088709677 75:0.19153226 76:-0.14516129 77:0.27016129 78:-0.13709677 79:0.3266129 80:-0.064516129 81:0.26008065 82:-0.056451613 83:0.18548387 84:-0.060483871 85:0.62096774 86:-0.060483871 87:0.68145161 88:-0.12903226 89:0.75806452 90:-0.13306452 91:0.8125 92:-0.074596774 93:0.7641129 94:-0.052419355 95:0.69153226 96:-0.050403226 97:0.21169355 98:0.41532258 99:0.28830645 100:0.35282258 101:0.37298387 102:0.32056452 103:0.42137097 104:0.33467742 105:0.47580645 106:0.32862903 107:0.55645161 108:0.36693548 109:0.64314516 110:0.43346774 111:0.55241935 112:0.47379032 113:0.46975806 114:0.48991935 115:0.41129032 116:0.49395161 117:0.35483871 118:0.4858871 119:0.27620968 120:0.46169355 121:0.24193548 122:0.41330645 123:0.36895161 124:0.39314516 125:0.41935484 126:0.39717742 127:0.47580645 128:0.39516129 129:0.60685484 130:0.43145161 131:0.47177419 132:0.40524194 133:0.41532258 134:0.40725806 135:0.3608871 136:0.39919355 
17.89019747752792 0 0 1.131913097621184 0 2.319986079622461 0 3:0.015075377 4:0.14070352 5:0.035175879 6:0.28140704 7:0.055276382 8:0.40703518 9:0.11055276 10:0.51256281 11:0.21105528 12:0.58291457 13:0.34170854 14:0.61809045 15:0.47738693 16:0.63819095 17:0.61306533 18:0.64824121 19:0.73366834 20:0.64321608 21:0.83417085 22:0.60301508 23:0.90452261 24:0.52763819 25:0.94974874 26:0.4321608 27:0.97487437 28:0.33165829 29:0.99497487 30:0.22110553 31:1 32:0.11557789 33:0.98994975 34:0.010050251 35:0.15577889 36:-0.18592965 37:0.23115578 38:-0.26633166 39:0.33668342 40:-0.31155779 41:0.45226131 42:-0.31658291 43:0.55276382 44:-0.28140704 45:0.72361809 46:-0.27135678 47:0.8040201 48:-0.28643216 49:0.88944724 50:-0.25628141 51:0.95979899 52:-0.1959799 53:0.9798995 54:-0.12060302 55:0.65829146 56:-0.15577889 57:0.66834171 58:-0.10552764 59:0.68341709 60:-0.050251256 61:0.69849246 63:0.55276382 64:0.11557789 65:0.6080402 66:0.12562814 67:0.66331658 68:0.14070352 69:0.70351759 70:0.14070352 71:0.74371859 72:0.14070352 73:0.29648241 74:-0.12562814 75:0.35678392 76:-0.15577889 77:0.4120603 78:-0.15577889 79:0.47236181 80:-0.12060302 81:0.4120603 82:-0.12060302 83:0.35678392 84:-0.12060302 85:0.73869347 86:-0.095477387 87:0.79899497 88:-0.11557789 89:0.84924623 90:-0.10050251 91:0.88944724 92:-0.060301508 93:0.84422111 94:-0.065326633 95:0.79396985 96:-0.08040201 97:0.40703518 98:0.32663317 99:0.49748744 100:0.25125628 101:0.59296482 102:0.22613065 103:0.64321608 104:0.24120603 105:0.69849246 106:0.24120603 107:0.75376884 108:0.28140704 109:0.78894472 110:0.3718593 111:0.73869347 112:0.39698492 113:0.67839196 114:0.39698492 115:0.62311558 116:0.3919598 117:0.5678392 118:0.38190955 119:0.48241206 120:0.3718593 121:0.43718593 122:0.32160804 123:0.5879397 124:0.27135678 125:0.63819095 126:0.27638191 127:0.69346734 128:0.28643216 129:0.75376884 130:0.35678392 131:0.68341709 132:0.34170854 133:0.6281407 134:0.33668342 135:0.57286432 136:0.33165829 
15.01888550564557 0 0 0 0 0 0 3:-0.025559105 4:0.12939297 5:-0.049520767 6:0.25878594 7:-0.065495208 8:0.39297125 9:-0.046325879 10:0.52076677 11:0.02715655 12:0.61182109 13:0.13099042 14:0.67891374 15:0.23642173 16:0.73162939 17:0.3658147 18:0.7715655 19:0.49840256 20:0.79073482 21:0.62779553 22:0.7827476 23:0.74600639 24:0.76038339 25:0.83067093 26:0.69968051 27:0.88977636 28:0.61022364 29:0.9313099 30:0.514377 31:0.96325879 32:0.41373802 33:0.99840256 34:0.31629393 35:0.17731629 36:-0.17412141 37:0.26996805 38:-0.23322684 39:0.38178914 40:-0.24920128 41:0.49201278 42:-0.22044728 43:0.59105431 44:-0.15654952 45:0.70607029 46:-0.1086262 47:0.80990415 48:-0.10063898 49:0.91054313 50:-0.067092652 51:0.98402556 52:0.0079872204 53:1 54:0.11022364 55:0.62619808 56:-0.036741214 57:0.61182109 58:0.03514377 59:0.59904153 60:0.10543131 61:0.58785942 62:0.18051118 63:0.43450479 64:0.23482428 65:0.48083067 66:0.26357827 67:0.53035144 68:0.29233227 69:0.58306709 70:0.30031949 71:0.63099042 72:0.30191693 73:0.2715655 74:-0.089456869 75:0.33865815 76:-0.10543131 77:0.40255591 78:-0.086261981 79:0.45047923 80:-0.031948882 81:0.38338658 82:-0.044728435 83:0.32268371 84:-0.062300319 85:0.7172524 86:0.063897764 87:0.78753994 88:0.046325879 89:0.84664537 90:0.075079872 91:0.88817891 92:0.12779553 93:0.83067093 94:0.11501597 95:0.7715655 96:0.092651757 97:0.23642173 98:0.38817891 99:0.34824281 100:0.37699681 101:0.45207668 102:0.38498403 103:0.49680511 104:0.40894569 105:0.5543131 106:0.41693291 107:0.61022364 108:0.45846645 109:0.65814696 110:0.52396166 111:0.57028754 112:0.53035144 113:0.5 114:0.52236422 115:0.44249201 116:0.51118211 117:0.39297125 118:0.49201278 119:0.30830671 120:0.45527157 121:0.26198083 122:0.39936102 123:0.43769968 124:0.41373802 125:0.485623 126:0.43290735 127:0.53833866 128:0.4456869 129:0.63258786 130:0.514377 131:0.52076677 132:0.48083067 133:0.46645367 134:0.46964856 135:0.41853035 136:0.45367412 
16.72216569643453 0 0 0 0 0 0 3:0.038505096 4:0.14382786 5:0.098527746 6:0.27746319 7:0.16534541 8:0.39524349 9:0.24348811 10:0.50736127 11:0.35334088 12:0.59796149 13:0.47451869 14:0.65685164 15:0.60249151 16:0.69535674 17:0.7191393 18:0.67157418 19:0.81200453 20:0.62061155 21:0.86749717 22:0.51755379 23:0.91506229 24:0.41676104 25:0.9580974 26:0.31257078 27:0.98754247 28:0.21177803 29:1 30:0.10758777 31:0.99320498 32:0.0022650057 33:0.97508494 34:-0.11098528 35:0.13250283 36:-0.049830125 37:0.21517554 38:-0.091732729 39:0.31030578 40:-0.10645527 41:0.40770102 42:-0.10419026 43:0.50509626 44:-0.08380521 45:0.72933182 46:-0.13137033 47:0.78029445 48:-0.18233296 49:0.83691959 50:-0.21970555 51:0.90260476 52:-0.24801812 53:0.95696489 54:-0.23216308 55:0.62967157 56:-0.016987542 57:0.65345413 58:0.07587769 59:0.6783692 60:0.16761042 61:0.70441676 62:0.26047565 63:0.57644394 64:0.30804077 65:0.63533409 66:0.31710079 67:0.69648924 68:0.3216308 69:0.73952435 70:0.29558324 71:0.77349943 72:0.26160815 73:0.2797282 74:0.040770102 75:0.33861835 76:-0.0022650057 77:0.40883352 78:-0.014722537 79:0.47112118 80:0.021517554 81:0.41336353 82:0.046432616 83:0.34201586 84:0.057757644 85:0.7202718 86:-0.031710079 87:0.76670442 88:-0.092865232 89:0.83125708 90:-0.10985277 91:0.88335221 92:-0.087202718 93:0.85050963 94:-0.047565119 95:0.78595696 96:-0.032842582 97:0.46092865 98:0.42355606 99:0.54926387 100:0.41223103 101:0.63533409 102:0.38958097 103:0.68629672 104:0.38844847 105:0.73046433 106:0.36466591 107:0.78142695 108:0.35334088 109:0.83012458 110:0.33295583 111:0.79728199 112:0.40996602 113:0.75424689 114:0.46659117 115:0.70554926 116:0.49263873 117:0.65345413 118:0.50283126 119:0.5594564 120:0.48810872 121:0.49830125 122:0.42808607 123:0.6409966 124:0.42355606 125:0.69082673 126:0.41562854 127:0.73725934 128:0.39524349 129:0.80294451 130:0.35560589 131:0.74178935 132:0.40203851 133:0.69535674 134:0.42808607 135:0.64552661 136:0.4394111 
30 0 18.59760529127659 0 0 0 11.57628602140456 3:-0.0074074074 4:0.13333333 6:0.27407407 7:0.014814815 8:0.40740741 9:0.051851852 10:0.54074074 11:0.12592593 12:0.65185185 13:0.24444444 14:0.73333333 15:0.37777778 16:0.8 17:0.52592593 18:0.81481481 19:0.65925926 20:0.80740741 21:0.77037037 22:0.74074074 23:0.85925926 24:0.65185185 25:0.91851852 26:0.54814815 27:0.94814815 28:0.42222222 29:0.97037037 30:0.3037037 31:0.99259259 32:0.17037037 33:1 34:0.051851852 35:0.16296296 36:-0.16296296 37:0.22962963 38:-0.21481481 39:0.31851852 40:-0.24444444 41:0.41481481 42:-0.22962963 43:0.4962963 44:-0.19259259 45:0.68888889 46:-0.17777778 47:0.77037037 48:-0.21481481 49:0.84444444 50:-0.21481481 51:0.91851852 52:-0.17777778 53:0.95555556 54:-0.1037037 55:0.6 56:-0.066666667 57:0.6 58:0.014814815 59:0.60740741 60:0.096296296 61:0.61481481 62:0.17777778 63:0.4962963 64:0.24444444 65:0.54074074 66:0.26666667 67:0.59259259 68:0.28888889 69:0.62962963 70:0.28148148 71:0.66666667 72:0.27407407 73:0.25185185 74:-0.059259259 75:0.31851852 76:-0.11111111 77:0.4 78:-0.1037037 79:0.44444444 80:-0.02962963 81:0.38518519 82:-0.022222222 83:0.31111111 84:-0.02962963 85:0.68888889 86:-0.0074074074 87:0.76296296 88:-0.066666667 89:0.83703704 90:-0.074074074 91:0.87407407 92:-0.0074074074 93:0.82962963 94:0.014814815 95:0.76296296 96:0.0074074074 97:0.32592593 98:0.44444444 99:0.42222222 100:0.4 101:0.51851852 102:0.38518519 103:0.57037037 104:0.4 105:0.62222222 106:0.39259259 107:0.68888889 108:0.42222222 109:0.74074074 110:0.46666667 111:0.68148148 112:0.51851852 113:0.61481481 114:0.52592593 115:0.55555556 116:0.52592593 117:0.4962963 118:0.51111111 119:0.41481481 120:0.4962963 121:0.36296296 122:0.44444444 123:0.51111111 124:0.44444444 125:0.57037037 126:0.44444444 127:0.62222222 128:0.45185185 129:0.71111111 130:0.47407407 131:0.61481481 132:0.46666667 133:0.56296296 134:0.45925926 135:0.5037037 136:0.45925926 
25.76083188458915 0 0 2.253657761734456 0 0 0 3:-0.0044762757 4:0.12623098 5:0.011638317 6:0.25425246 7:0.03312444 8:0.37421665 9:0.06266786 10:0.49239033 11:0.11906893 12:0.59803044 13:0.19068935 14:0.68307968 15:0.27126231 16:0.74485228 17:0.37511191 18:0.7645479 19:0.49059982 20:0.76365264 21:0.61414503 22:0.72605192 23:0.72873769 24:0.65980304 25:0.82721576 26:0.57385855 27:0.89704566 28:0.46553268 29:0.94449418 30:0.3393017 31:0.98030439 32:0.20411817 33:1 34:0.061772605 35:0.02954342 36:-0.068934646 37:0.080572963 38:-0.12264996 39:0.16025067 40:-0.13160251 41:0.23992838 42:-0.10116383 43:0.30975828 44:-0.054610564 45:0.45747538 46:-0.045658013 47:0.55505819 48:-0.084153984 49:0.65980304 50:-0.095792301 51:0.76275739 52:-0.068934646 53:0.83258729 54:0.0026857654 55:0.38495971 56:0.065353626 57:0.37421665 58:0.16114593 59:0.36257833 60:0.25335721 61:0.35094002 62:0.34556849 63:0.25335721 64:0.36974038 65:0.30170098 66:0.39391226 67:0.35362578 68:0.41539839 69:0.4171889 70:0.40465533 71:0.4789615 72:0.39570278 73:0.1038496 74:0.040286482 75:0.15756491 76:0.023276634 77:0.21396598 78:0.03312444 79:0.26768129 80:0.074306177 81:0.20680394 82:0.065353626 83:0.14861235 84:0.057296329 85:0.53267681 86:0.094897046 87:0.59265891 88:0.06266786 89:0.65532677 90:0.069829902 91:0.71888988 92:0.09221128 93:0.65532677 94:0.099373321 95:0.59265891 96:0.098478066 97:0.21217547 98:0.49865712 99:0.26410027 100:0.48433303 101:0.31781558 102:0.47627574 103:0.36168308 104:0.49418084 105:0.41808415 106:0.48522829 107:0.49686661 108:0.50850492 109:0.57833483 110:0.53446732 111:0.49686661 112:0.60698299 113:0.41360788 114:0.63652641 115:0.35362578 116:0.6347359 117:0.3034915 118:0.62041182 119:0.25335721 120:0.57564906 121:0.24082363 122:0.50850492 123:0.31423456 124:0.51924799 125:0.35899731 126:0.53178156 127:0.4171889 128:0.52999105 129:0.54521038 130:0.53715309 131:0.41539839 132:0.55863921 133:0.35631155 134:0.55863921 135:0.30975828 136:0.54431513 
30 0 0 10.0498059572868 0 0 3.656986106919253 3:0.0044378698 4:0.11242604 5:0.014792899 6:0.21745562 7:0.041420118 8:0.32100592 9:0.081360947 10:0.42307692 11:0.14053254 12:0.5147929 13:0.22633136 14:0.57692308 15:0.34319527 16:0.61390533 17:0.47485207 18:0.61982249 19:0.60502959 20:0.61538462 21:0.72337278 22:0.58579882 23:0.8239645 24:0.53106509 25:0.90088757 26:0.45118343 27:0.95266272 28:0.35502959 29:0.98372781 30:0.25 31:0.99408284 32:0.14940828 33:1 34:0.045857988 35:0.075443787 36:-0.12869822 37:0.13757396 38:-0.1908284 39:0.22781065 40:-0.21005917 41:0.32100592 42:-0.19378698 43:0.40828402 44:-0.16420118 45:0.61242604 46:-0.16568047 47:0.7056213 48:-0.1908284 49:0.79881657 50:-0.20266272 51:0.88905325 52:-0.18047337 53:0.94674556 54:-0.12278107 55:0.51183432 56:-0.031065089 57:0.51035503 58:0.051775148 59:0.51035503 60:0.12721893 61:0.51035503 62:0.20710059 63:0.37721893 64:0.25295858 65:0.43934911 66:0.27366864 67:0.50591716 68:0.29289941 69:0.57248521 70:0.27810651 71:0.63017751 72:0.25887574 73:0.16272189 74:-0.01183432 75:0.22485207 76:-0.038461538 77:0.29585799 78:-0.038461538 79:0.35946746 80:-0.0029585799 81:0.2943787 82:0.0044378698 83:0.22337278 84:0.0059171598 85:0.65828402 87:0.72928994 88:-0.036982249 89:0.79881657 90:-0.032544379 91:0.85502959 92:-0.0044378698 93:0.80029586 94:0.01183432 95:0.73076923 96:0.01183432 97:0.28698225 98:0.42751479 99:0.37573964 100:0.40088757 101:0.45266272 102:0.38609467 103:0.49556213 104:0.40088757 105:0.54881657 106:0.38757396 107:0.62426036 108:0.40532544 109:0.70414201 110:0.43639053 111:0.61982249 112:0.46153846 113:0.54142012 114:0.47337278 115:0.4852071 116:0.47781065 117:0.43786982 118:0.47633136 119:0.36242604 120:0.46597633 121:0.31952663 122:0.42899408 123:0.44970414 124:0.43343195 125:0.49408284 126:0.43934911 127:0.54881657 128:0.43491124 129:0.67159763 130:0.43639053 131:0.54142012 132:0.42011834 133:0.48816568 134:0.42455621 135:0.44378698 136:0.42455621 
0 0 0 0 0 0 3.455248537794989 3:0.0035587189 4:0.13523132 5:0.010676157 6:0.27046263 7:0.017793594 8:0.40925267 9:0.056939502 10:0.53380783 11:0.12811388 12:0.64768683 13:0.20996441 14:0.73309609 15:0.29893238 16:0.78291815 17:0.41281139 18:0.79715302 19:0.53380783 20:0.79003559 21:0.63701068 22:0.75088968 23:0.7366548 24:0.68327402 25:0.81494662 26:0.59074733 27:0.87544484 28:0.48398577 29:0.91814947 30:0.36654804 31:0.96441281 32:0.2455516 33:1 34:0.113879 35:0.081850534 36:-0.096085409 37:0.15302491 38:-0.16370107 39:0.25622776 40:-0.18505338 41:0.3594306 42:-0.16725979 43:0.45551601 44:-0.113879 45:0.60854093 46:-0.085409253 47:0.70462633 48:-0.11032028 49:0.8113879 50:-0.10320285 51:0.90035587 52:-0.06405694 53:0.95373665 54:0.017793594 55:0.51601423 57:0.50533808 58:0.071174377 59:0.4911032 60:0.13879004 61:0.48042705 62:0.21352313 63:0.37366548 64:0.28825623 65:0.41992883 66:0.30960854 67:0.47330961 68:0.32740214 69:0.52669039 70:0.3202847 71:0.58362989 72:0.30960854 73:0.17437722 74:-0.010676157 75:0.24199288 76:-0.049822064 77:0.31672598 78:-0.035587189 79:0.37366548 80:0.028469751 81:0.3024911 82:0.028469751 83:0.22775801 84:0.017793594 85:0.64768683 86:0.060498221 87:0.71530249 88:0.010676157 89:0.79003559 90:0.021352313 91:0.84341637 92:0.074733096 93:0.78647687 94:0.085409253 95:0.71530249 96:0.074733096 97:0.22775801 98:0.45907473 99:0.30960854 100:0.42348754 101:0.40569395 102:0.40925267 103:0.46975089 104:0.42704626 105:0.53024911 106:0.41992883 107:0.61565836 108:0.44839858 109:0.67615658 110:0.50177936 111:0.60142349 112:0.61209964 113:0.51245552 114:0.66548043 115:0.44483986 116:0.66903915 117:0.37366548 118:0.65480427 119:0.28469751 120:0.59430605 121:0.25266904 122:0.46975089 123:0.39857651 124:0.44839858 125:0.46263345 126:0.46263345 127:0.52669039 128:0.45907473 129:0.65124555 130:0.50533808 131:0.51957295 132:0.59430605 133:0.4519573 134:0.60142349 135:0.38434164 136:0.58718861 
30 0 0 20.38622707613509 0 24.34192933550978 0 3:0.0056497175 4:0.14689266 5:0.025423729 6:0.28531073 7:0.050847458 8:0.4180791 9:0.084745763 10:0.54519774 11:0.14689266 12:0.66384181 13:0.22881356 14:0.75988701 15:0.34180791 16:0.82485876 17:0.47175141 18:0.83898305 19:0.60169492 20:0.82768362 21:0.71186441 22:0.76553672 23:0.79378531 24:0.68079096 25:0.85875706 26:0.57062147 27:0.90112994 28:0.45480226 29:0.94067797 30:0.33333333 31:0.97457627 32:0.20903955 33:1 34:0.070621469 35:0.10451977 36:-0.031073446 37:0.1779661 38:-0.09039548 39:0.27966102 40:-0.098870056 41:0.37570621 42:-0.076271186 43:0.46327684 44:-0.036723164 45:0.5960452 46:-0.031073446 47:0.68361582 48:-0.064971751 49:0.77683616 50:-0.079096045 51:0.86723164 52:-0.059322034 53:0.92937853 54:0.0084745763 55:0.51977401 56:0.064971751 57:0.51694915 58:0.15536723 59:0.51129944 60:0.24293785 61:0.50847458 62:0.33050847 63:0.39830508 64:0.37288136 65:0.44632768 66:0.38983051 67:0.49717514 68:0.40677966 69:0.5480226 70:0.39548023 71:0.59887006 72:0.38135593 73:0.20338983 74:0.062146893 75:0.25988701 76:0.042372881 77:0.31920904 78:0.050847458 79:0.36440678 80:0.087570621 81:0.3079096 82:0.09039548 83:0.25141243 84:0.081920904 85:0.66384181 86:0.10451977 87:0.71468927 88:0.070621469 89:0.77118644 90:0.070621469 91:0.8220339 92:0.098870056 93:0.7740113 94:0.11299435 95:0.71751412 96:0.11299435 97:0.29096045 98:0.53672316 99:0.36723164 100:0.50282486 101:0.44350282 102:0.48305085 103:0.49152542 104:0.5 105:0.54237288 106:0.48870056 107:0.61016949 108:0.51412429 109:0.67514124 110:0.55367232 111:0.60451977 112:0.6440678 113:0.53672316 114:0.68079096 115:0.47740113 116:0.68644068 117:0.42090395 118:0.6779661 119:0.35028249 120:0.63276836 121:0.31920904 122:0.54237288 123:0.43785311 124:0.52542373 125:0.48870056 126:0.53389831 127:0.53954802 128:0.52824859 129:0.64689266 130:0.55649718 131:0.53954802 132:0.59887006 133:0.48587571 134:0.60451977 135:0.43220339 136:0.59322034 
27.50039676577853 0 0 12.49390430183244 0 0 0 3:0.0097560976 4:0.14146341 5:0.024390244 6:0.27804878 7:0.048780488 8:0.4195122 9:0.10243902 10:0.54146341 11:0.2 12:0.64878049 13:0.30731707 14:0.73658537 15:0.42926829 16:0.80487805 17:0.56097561 18:0.81463415 19:0.68292683 20:0.8 21:0.77560976 22:0.71707317 23:0.85853659 24:0.62926829 25:0.93170732 26:0.52682927 27:0.97073171 28:0.40487805 29:0.9902439 30:0.27317073 31:1 32:0.14634146 33:1 34:0.0048780488 35:0.092682927 36:0.0048780488 37:0.17560976 38:-0.03902439 39:0.27804878 40:-0.048780488 41:0.37560976 42:-0.03902439 43:0.47804878 44:-0.019512195 45:0.6195122 46:-0.029268293 47:0.71219512 48:-0.058536585 49:0.8 50:-0.082926829 51:0.89756098 52:-0.082926829 53:0.96585366 54:-0.034146341 55:0.54634146 56:0.058536585 57:0.55121951 58:0.15609756 59:0.55609756 60:0.24878049 61:0.55609756 62:0.34634146 63:0.43414634 64:0.38536585 65:0.49268293 66:0.40487805 67:0.55609756 68:0.42439024 69:0.61463415 70:0.4 71:0.67317073 72:0.37560976 73:0.20487805 74:0.07804878 75:0.26829268 76:0.058536585 77:0.33658537 78:0.058536585 79:0.4 80:0.087804878 81:0.33170732 82:0.097560976 83:0.26341463 84:0.10243902 85:0.67804878 86:0.073170732 87:0.74146341 88:0.029268293 89:0.8097561 90:0.024390244 91:0.87804878 92:0.043902439 93:0.8195122 94:0.073170732 95:0.75121951 96:0.07804878 97:0.31707317 98:0.52682927 99:0.4097561 100:0.51707317 101:0.49756098 102:0.49756098 103:0.55121951 104:0.51219512 105:0.6097561 106:0.49268293 107:0.69756098 108:0.50243902 109:0.78536585 110:0.50731707 111:0.70731707 112:0.59512195 113:0.62439024 114:0.64390244 115:0.56097561 116:0.65365854 117:0.49756098 118:0.64878049 119:0.4097561 120:0.6097561 121:0.35121951 122:0.53658537 123:0.49756098 124:0.55609756 125:0.55609756 126:0.56097561 127:0.6097561 128:0.55121951 129:0.74634146 130:0.52195122 131:0.61463415 132:0.55609756 133:0.56097561 134:0.56585366 135:0.50243902 136:0.56097561 
6.379984551711939 0 0 0 0 0 0 3:0.031746032 4:0.14603175 5:0.076190476 6:0.28253968 7:0.13333333 8:0.40952381 9:0.21269841 10:0.52063492 11:0.33333333 12:0.61269841 13:0.46349206 14:0.68253968 15:0.61269841 16:0.71746032 17:0.74285714 18:0.71111111 19:0.84126984 20:0.67619048 21:0.88888889 22:0.58412698 23:0.93333333 24:0.48571429 25:0.96190476 26:0.38095238 27:0.98412698 28:0.26984127 29:1 30:0.16507937 31:0.99047619 32:0.06031746 33:0.96190476 34:-0.041269841 35:0.15873016 36:-0.073015873 37:0.23809524 38:-0.13968254 39:0.34285714 40:-0.17142857 41:0.45079365 42:-0.16507937 43:0.56190476 44:-0.13968254 45:0.72698413 46:-0.14285714 47:0.79365079 48:-0.18412698 49:0.85714286 50:-0.20634921 51:0.92063492 52:-0.21269841 53:0.95873016 54:-0.16507937 55:0.66031746 56:-0.031746032 57:0.69206349 58:0.06031746 59:0.73015873 60:0.14920635 61:0.76507937 62:0.24126984 63:0.61269841 64:0.30793651 65:0.67301587 66:0.32063492 67:0.73015873 68:0.33333333 69:0.77460317 70:0.31111111 71:0.80634921 72:0.27936508 73:0.30793651 74:0.0063492063 75:0.36507937 76:-0.028571429 77:0.43174603 78:-0.031746032 79:0.5015873 80:0.0031746032 81:0.43492063 82:0.025396825 83:0.36825397 84:0.028571429 85:0.73015873 86:-0.019047619 87:0.78095238 88:-0.063492063 89:0.84126984 90:-0.073015873 91:0.88888889 92:-0.050793651 93:0.85396825 94:-0.019047619 95:0.79365079 96:-0.012698413 97:0.46984127 98:0.43809524 99:0.58095238 100:0.43492063 101:0.66984127 102:0.41904762 103:0.71746032 104:0.42222222 105:0.75555556 106:0.40634921 107:0.8031746 108:0.4 109:0.84444444 110:0.39047619 111:0.81587302 112:0.45396825 113:0.77142857 114:0.48888889 115:0.73015873 116:0.5015873 117:0.68253968 118:0.50793651 119:0.58730159 120:0.4952381 121:0.5047619 122:0.44444444 123:0.67301587 124:0.45714286 125:0.71746032 126:0.45079365 127:0.75873016 128:0.43809524 129:0.81904762 130:0.40634921 131:0.76190476 132:0.43174603 133:0.72380952 134:0.44444444 135:0.67619048 136:0.45079365 
2.911093330393706 0 0 0 0 0 0 3:0.0063897764 4:0.099041534 5:0.022364217 6:0.19488818 7:0.051118211 8:0.29073482 9:0.095846645 10:0.37699681 11:0.16932907 12:0.44408946 13:0.26837061 14:0.48242812 15:0.37380192 16:0.50479233 17:0.49840256 18:0.49520767 19:0.63578275 20:0.46964856 21:0.76038339 22:0.41853035 23:0.87859425 24:0.35463259 25:0.96485623 26:0.26517572 27:0.99680511 28:0.15015974 29:0.99680511 30:0.028753994 31:1 32:-0.092651757 33:1 34:-0.21405751 36:-0.13738019 37:0.019169329 38:-0.22044728 39:0.079872204 40:-0.27476038 41:0.1629393 42:-0.31309904 43:0.25559105 44:-0.31948882 45:0.38977636 46:-0.37380192 47:0.50159744 48:-0.41533546 49:0.62300319 50:-0.42811502 51:0.73801917 52:-0.39616613 53:0.82428115 54:-0.31948882 55:0.33226837 56:-0.22364217 57:0.32907348 58:-0.17252396 59:0.31948882 60:-0.12460064 61:0.31309904 62:-0.076677316 63:0.26837061 64:0.041533546 65:0.31629393 66:0.041533546 67:0.36421725 68:0.041533546 69:0.41853035 70:0.019169329 71:0.47603834 72:-0.0031948882 73:0.095846645 74:-0.089456869 75:0.1341853 76:-0.15015974 77:0.19808307 78:-0.16932907 79:0.26198083 80:-0.14057508 81:0.20766773 82:-0.1086262 83:0.14376997 84:-0.089456869 85:0.50159744 86:-0.20766773 87:0.54632588 88:-0.27476038 89:0.61980831 90:-0.28753994 91:0.69648562 92:-0.25559105 93:0.63897764 94:-0.22683706 95:0.56549521 96:-0.21086262 97:0.25239617 98:0.23961661 99:0.29392971 100:0.18210863 101:0.34185304 102:0.14696486 103:0.38338658 104:0.14696486 105:0.42492013 106:0.12140575 107:0.514377 108:0.12460064 109:0.62939297 110:0.14057508 111:0.54632588 112:0.20447284 113:0.46645367 114:0.2428115 115:0.42172524 116:0.25878594 117:0.38019169 118:0.26837061 119:0.31948882 120:0.26837061 121:0.28115016 122:0.23003195 123:0.35463259 124:0.18530351 125:0.39297125 126:0.17571885 127:0.43769968 128:0.15974441 129:0.5942492 130:0.14696486 131:0.44728435 132:0.19169329 133:0.4057508 134:0.20766773 135:0.36421725 136:0.21405751 
30 0 0 0 0 0 0 3:0.025882353 4:0.11294118 5:0.065882353 6:0.22588235 7:0.10823529 8:0.33176471 9:0.17647059 10:0.43058824 11:0.26588235 12:0.50117647 13:0.37176471 14:0.54352941 15:0.48470588 16:0.57882353 17:0.58352941 18:0.57647059 19:0.68 20:0.54352941 21:0.77647059 22:0.48235294 23:0.87058824 24:0.40705882 25:0.94588235 26:0.31294118 27:0.98823529 28:0.19529412 29:1 30:0.063529412 31:0.99764706 32:-0.068235294 33:0.98352941 34:-0.19764706 35:0.042352941 36:-0.084705882 37:0.08 38:-0.14823529 39:0.15294118 40:-0.17411765 41:0.23294118 42:-0.17882353 43:0.31294118 44:-0.17176471 45:0.46823529 46:-0.20941176 47:0.54588235 48:-0.25411765 49:0.63058824 50:-0.28235294 51:0.72 52:-0.28470588 53:0.79529412 54:-0.25411765 55:0.41176471 56:-0.065882353 57:0.42117647 58:-0.0023529412 59:0.43058824 60:0.061176471 61:0.44 62:0.12705882 63:0.37882353 64:0.20941176 65:0.42588235 66:0.20941176 67:0.46823529 68:0.20705882 69:0.51294118 70:0.19058824 71:0.55529412 72:0.17411765 73:0.15529412 74:-0.018823529 75:0.19764706 76:-0.054117647 77:0.25411765 78:-0.058823529 79:0.30352941 80:-0.023529412 81:0.25882353 82:-0.0094117647 83:0.20235294 84:-0.0047058824 85:0.55764706 86:-0.077647059 87:0.58823529 88:-0.13411765 89:0.64705882 90:-0.14588235 91:0.70823529 92:-0.13176471 93:0.66588235 94:-0.10117647 95:0.60941176 96:-0.082352941 97:0.36705882 98:0.35058824 99:0.41176471 100:0.30352941 101:0.45647059 102:0.27058824 103:0.48941176 104:0.27294118 105:0.52705882 106:0.25647059 107:0.59764706 108:0.27058824 109:0.67764706 110:0.29176471 111:0.61882353 112:0.34352941 113:0.56 114:0.37176471 115:0.52 116:0.38117647 117:0.48235294 118:0.38352941 119:0.43058824 120:0.37647059 121:0.39529412 122:0.34352941 123:0.46352941 124:0.30352941 125:0.49647059 126:0.30117647 127:0.53647059 128:0.29176471 129:0.65176471 130:0.29647059 131:0.54352941 132:0.32941176 133:0.50352941 134:0.33647059 135:0.47058824 136:0.33882353 
30 0 0 19.11883132942363 0 0 0 3:-0.011730205 4:0.11217009 5:-0.012463343 6:0.23167155 7:-0.0029325513 8:0.35117302 9:0.019061584 10:0.46774194 11:0.065982405 12:0.56964809 13:0.13709677 14:0.65542522 15:0.21407625 16:0.72360704 17:0.32258065 18:0.74120235 19:0.45454545 20:0.74706745 21:0.60043988 22:0.72580645 23:0.7441349 24:0.6840176 25:0.85190616 26:0.60190616 27:0.92008798 28:0.48973607 29:0.95967742 30:0.35997067 31:0.98313783 32:0.22434018 33:1 34:0.085777126 35:0.035923754 36:-0.093108504 37:0.090175953 38:-0.13123167 39:0.16422287 40:-0.12609971 41:0.23680352 42:-0.098973607 43:0.30571848 44:-0.066715543 45:0.46187683 46:-0.063049853 47:0.55645161 48:-0.093841642 49:0.65249267 50:-0.11070381 51:0.75513196 52:-0.088709677 53:0.8372434 54:-0.028592375 55:0.37243402 56:0.022727273 57:0.3526393 58:0.10997067 59:0.33064516 60:0.19501466 61:0.3101173 62:0.28005865 63:0.26392962 64:0.3313783 65:0.29398827 66:0.34824047 67:0.32844575 68:0.36510264 69:0.37683284 70:0.36217009 71:0.42521994 72:0.36143695 73:0.11363636 74:0.0014662757 75:0.16495601 76:-0.028592375 77:0.23240469 78:-0.018328446 79:0.28372434 80:0.041788856 81:0.22140762 82:0.041055718 83:0.15395894 84:0.032258065 85:0.53445748 86:0.06085044 87:0.5931085 88:0.008797654 89:0.66202346 90:0.010997067 91:0.71847507 92:0.05058651 93:0.66642229 94:0.074046921 95:0.59677419 96:0.073313783 97:0.17008798 98:0.478739 99:0.22360704 100:0.4516129 101:0.28372434 102:0.4398827 103:0.32991202 104:0.46041056 105:0.38709677 106:0.45527859 107:0.47067449 108:0.48533724 109:0.56231672 110:0.52199413 111:0.45967742 112:0.55571848 113:0.37243402 114:0.56891496 115:0.31378299 116:0.56451613 117:0.26392962 118:0.55131965 119:0.21334311 120:0.521261 121:0.19281525 122:0.48167155 123:0.28079179 124:0.48973607 125:0.32844575 126:0.50219941 127:0.3856305 128:0.50439883 129:0.52932551 130:0.51906158 131:0.37756598 132:0.51246334 133:0.32111437 134:0.50879765 135:0.27346041 136:0.49633431 
26.73731238907602 0 0 0 0 0 0 3:-0.014285714 4:0.10714286 5:-0.021428571 6:0.22142857 7:0.0071428571 8:0.34285714 9:0.035714286 10:0.45714286 11:0.078571429 12:0.57857143 13:0.12857143 14:0.68571429 15:0.18571429 16:0.79285714 17:0.29285714 18:0.82857143 19:0.43571429 20:0.82857143 21:0.58571429 22:0.77857143 23:0.72857143 24:0.69285714 25:0.85 26:0.59285714 27:0.93571429 28:0.46428571 29:0.97142857 30:0.31428571 31:0.99285714 32:0.17857143 33:1 34:0.035714286 36:-0.15 37:0.05 38:-0.17857143 39:0.10714286 40:-0.16428571 41:0.17142857 42:-0.14285714 43:0.22857143 44:-0.10714286 45:0.39285714 46:-0.1 47:0.5 48:-0.12857143 49:0.6 50:-0.14285714 51:0.7 52:-0.12142857 53:0.77857143 54:-0.071428571 55:0.30714286 57:0.28571429 58:0.085714286 59:0.25714286 60:0.17142857 61:0.22857143 62:0.26428571 63:0.17857143 64:0.31428571 65:0.21428571 66:0.35 67:0.26428571 68:0.37142857 69:0.32142857 70:0.35 71:0.37857143 72:0.33571429 73:0.064285714 74:-0.021428571 75:0.11428571 76:-0.057142857 77:0.17857143 78:-0.05 79:0.22857143 80:0.014285714 81:0.17142857 82:0.021428571 83:0.1 84:0.014285714 85:0.48571429 86:0.028571429 87:0.54285714 88:-0.021428571 89:0.61428571 90:-0.014285714 91:0.67142857 92:0.028571429 93:0.62142857 94:0.057142857 95:0.55 96:0.05 97:0.12857143 98:0.47142857 99:0.17142857 100:0.45 101:0.22857143 102:0.44285714 103:0.26428571 104:0.45714286 105:0.32857143 106:0.45 107:0.42142857 108:0.47142857 109:0.54285714 110:0.49285714 111:0.42857143 112:0.56428571 113:0.33571429 114:0.59285714 115:0.27142857 116:0.59285714 117:0.22142857 118:0.57857143 119:0.16428571 120:0.54285714 121:0.16428571 122:0.48571429 123:0.22857143 124:0.49285714 125:0.27142857 126:0.49285714 127:0.32857143 128:0.49285714 129:0.49285714 130:0.5 131:0.32857143 132:0.52142857 133:0.27142857 134:0.51428571 135:0.22857143 136:0.50714286 
0 0 0 0 0 0 1.242271923167106 3:0.013793103 4:0.15862069 5:0.034482759 6:0.31034483 7:0.075862069 8:0.45517241 9:0.14482759 10:0.57931034 11:0.25517241 12:0.68275862 13:0.39310345 14:0.75172414 15:0.53103448 16:0.8 17:0.66206897 18:0.8 19:0.77241379 20:0.76551724 21:0.84137931 22:0.66896552 23:0.91034483 24:0.57931034 25:0.95172414 26:0.47586207 27:0.97931034 28:0.35862069 29:0.99310345 30:0.24827586 31:1 32:0.13103448 33:1 34:0.020689655 35:0.22758621 36:-0.082758621 37:0.31034483 38:-0.13793103 39:0.40689655 40:-0.16551724 41:0.51034483 42:-0.16551724 43:0.6137931 44:-0.13793103 45:0.75862069 46:-0.13103448 47:0.82758621 48:-0.16551724 49:0.89655172 50:-0.17931034 51:0.95862069 52:-0.16551724 53:0.9862069 54:-0.10344828 55:0.69655172 56:-0.020689655 57:0.71724138 58:0.055172414 59:0.73103448 60:0.13103448 61:0.75172414 62:0.2137931 63:0.60689655 64:0.28965517 65:0.66206897 66:0.30344828 67:0.71724138 68:0.32413793 69:0.75862069 70:0.30344828 71:0.7862069 72:0.28275862 73:0.35172414 74:0.0068965517 75:0.40689655 76:-0.04137931 77:0.48275862 78:-0.04137931 79:0.53793103 80:0.013793103 81:0.47586207 82:0.034482759 83:0.40689655 84:0.034482759 85:0.74482759 86:0.0068965517 87:0.8 88:-0.048275862 89:0.86896552 90:-0.048275862 91:0.91034483 92:-0.0068965517 93:0.87586207 94:0.027586207 95:0.80689655 96:0.027586207 97:0.44827586 98:0.44827586 99:0.56551724 100:0.43448276 101:0.65517241 102:0.42758621 103:0.69655172 104:0.43448276 105:0.73793103 106:0.42758621 107:0.77931034 108:0.42758621 109:0.8137931 110:0.44827586 111:0.77931034 112:0.51034483 113:0.73103448 114:0.53793103 115:0.69655172 116:0.54482759 117:0.64137931 118:0.53793103 119:0.55172414 120:0.51724138 121:0.48965517 122:0.45517241 123:0.64827586 124:0.47586207 125:0.69655172 126:0.47586207 127:0.73103448 128:0.47586207 129:0.7862069 130:0.46206897 131:0.73103448 132:0.46896552 133:0.69655172 134:0.47586207 135:0.64827586 136:0.47586207 
30 0 0 0 0 0 0 3:0.0066889632 4:0.14381271 5:0.02006689 6:0.28428094 7:0.043478261 8:0.4180602 9:0.10033445 10:0.53511706 11:0.20401338 12:0.6187291 13:0.33779264 14:0.66889632 15:0.47491639 16:0.69565217 17:0.60869565 18:0.69565217 19:0.72575251 20:0.68227425 21:0.82274247 22:0.62876254 23:0.89966555 24:0.54849498 25:0.95317726 26:0.4548495 27:0.97324415 28:0.33779264 29:0.98662207 30:0.22073579 31:0.99665552 32:0.10702341 33:1 34:-0.010033445 35:0.12374582 36:-0.096989967 37:0.20735786 38:-0.16053512 39:0.31438127 40:-0.17391304 41:0.4180602 42:-0.16053512 43:0.51839465 44:-0.13043478 45:0.64548495 46:-0.13377926 47:0.73244147 48:-0.1638796 49:0.81939799 50:-0.17725753 51:0.90301003 52:-0.1638796 53:0.95652174 54:-0.11036789 55:0.59197324 56:-0.026755853 57:0.59866221 58:0.070234114 59:0.60535117 60:0.1638796 61:0.61538462 62:0.26086957 63:0.48494983 64:0.31438127 65:0.5451505 66:0.3277592 67:0.60535117 68:0.33779264 69:0.65551839 70:0.32107023 71:0.69899666 72:0.30434783 73:0.24080268 74:-0.0066889632 75:0.30434783 76:-0.046822742 77:0.37792642 78:-0.043478261 79:0.44481605 80:0.0066889632 81:0.37458194 82:0.02006689 83:0.30100334 84:0.02006689 85:0.68227425 86:0.0066889632 87:0.7458194 88:-0.046822742 89:0.81605351 90:-0.046822742 91:0.86956522 92:-0.013377926 93:0.82274247 94:0.016722408 95:0.75250836 96:0.02006689 97:0.38795987 98:0.46153846 99:0.47826087 100:0.42474916 101:0.55852843 102:0.40468227 103:0.60869565 104:0.4180602 105:0.66555184 106:0.40133779 107:0.72909699 108:0.41137124 109:0.78595318 110:0.4180602 111:0.73578595 112:0.48160535 113:0.67558528 114:0.51505017 115:0.6187291 116:0.52508361 117:0.56187291 118:0.52173913 119:0.48160535 120:0.50501672 121:0.4180602 122:0.46153846 123:0.55852843 124:0.44481605 125:0.60869565 126:0.44816054 127:0.66555184 128:0.43812709 129:0.75919732 130:0.42809365 131:0.66889632 132:0.44816054 133:0.61204013 134:0.45819398 135:0.56187291 136:0.45819398 
30 0 0 11.32560452745429 0 21.51448357649731 0 3:0.020833333 4:0.13194444 5:0.048611111 6:0.26388889 7:0.076388889 8:0.39583333 9:0.13194444 10:0.52083333 11:0.22916667 12:0.625 13:0.34722222 14:0.70833333 15:0.47916667 16:0.76388889 17:0.625 18:0.77777778 19:0.75 20:0.73611111 21:0.84027778 22:0.63194444 23:0.91666667 24:0.52083333 25:0.96527778 26:0.40277778 27:0.99305556 28:0.27777778 29:1 30:0.14583333 31:1 32:0.027777778 33:0.99305556 34:-0.097222222 35:0.13888889 36:-0.069444444 37:0.20833333 38:-0.13888889 39:0.30555556 40:-0.15277778 41:0.40277778 42:-0.15277778 43:0.5 44:-0.125 45:0.59027778 46:-0.14583333 47:0.67361111 48:-0.1875 49:0.76388889 50:-0.20833333 51:0.84722222 52:-0.20833333 53:0.90972222 54:-0.14583333 55:0.55555556 56:-0.055555556 57:0.5625 58:0.048611111 59:0.57638889 60:0.13888889 61:0.58333333 62:0.24305556 63:0.46527778 64:0.27777778 65:0.52777778 66:0.29166667 67:0.58333333 68:0.3125 69:0.63888889 70:0.28472222 71:0.69444444 72:0.25 73:0.23611111 75:0.29166667 76:-0.027777778 77:0.34722222 78:-0.034722222 79:0.40972222 80:-0.013888889 81:0.35416667 82:-0.0069444444 83:0.29861111 85:0.68055556 86:-0.041666667 87:0.72916667 88:-0.069444444 89:0.78472222 90:-0.076388889 91:0.84722222 92:-0.0625 93:0.79166667 94:-0.048611111 95:0.73611111 96:-0.041666667 97:0.40277778 98:0.47222222 99:0.46527778 100:0.42361111 101:0.53472222 102:0.39583333 103:0.59027778 104:0.40277778 105:0.64583333 106:0.38194444 107:0.70833333 108:0.38888889 109:0.77777778 110:0.41666667 111:0.72222222 112:0.49305556 113:0.66666667 114:0.53472222 115:0.61111111 116:0.54861111 117:0.54861111 118:0.54861111 119:0.47916667 120:0.52777778 121:0.43055556 122:0.46527778 123:0.54166667 124:0.43055556 125:0.59722222 126:0.42361111 127:0.65277778 128:0.41666667 129:0.75 130:0.42361111 131:0.65972222 132:0.47222222 133:0.60416667 134:0.48611111 135:0.54861111 136:0.48611111 
25.76383542901572 0 0 0 0 0 0 4:0.13333333 5:0.02 6:0.27333333 7:0.053333333 8:0.40666667 9:0.10666667 10:0.52 11:0.18 12:0.63333333 13:0.24666667 14:0.74 15:0.34 16:0.83333333 17:0.45333333 18:0.86 19:0.57333333 20:0.83333333 21:0.66666667 22:0.75333333 23:0.76 24:0.65333333 25:0.84 26:0.54 27:0.91333333 28:0.42 29:0.95333333 30:0.28666667 31:0.98 32:0.14666667 33:1 34:0.0066666667 35:0.053333333 36:-0.026666667 37:0.12666667 38:-0.073333333 39:0.21333333 40:-0.06 41:0.30666667 42:-0.033333333 43:0.39333333 44:0.0066666667 45:0.56666667 46:0.0066666667 47:0.66 48:-0.033333333 49:0.75333333 50:-0.046666667 51:0.84 52:-0.053333333 53:0.91333333 54:-0.02 55:0.47333333 56:0.08 57:0.47333333 58:0.2 59:0.46666667 60:0.31333333 61:0.46 62:0.43333333 63:0.34666667 64:0.42666667 65:0.4 66:0.46 67:0.46666667 68:0.48666667 69:0.53333333 70:0.45333333 71:0.58666667 72:0.42 73:0.14666667 74:0.086666667 75:0.22 76:0.1 77:0.28666667 78:0.1 79:0.35333333 80:0.1 81:0.28 82:0.12666667 83:0.21333333 84:0.12666667 85:0.6 86:0.1 87:0.68 88:0.1 89:0.74666667 90:0.10666667 91:0.81333333 92:0.093333333 93:0.74666667 94:0.12666667 95:0.68 96:0.12666667 97:0.27333333 98:0.52666667 99:0.34666667 100:0.53333333 101:0.41333333 102:0.53333333 103:0.46666667 104:0.54666667 105:0.53333333 106:0.53333333 107:0.60666667 108:0.52666667 109:0.68 110:0.51333333 111:0.60666667 112:0.60666667 113:0.53333333 114:0.66 115:0.46666667 116:0.67333333 117:0.40666667 118:0.66666667 119:0.34 120:0.62 121:0.3 122:0.54 123:0.41333333 124:0.57333333 125:0.46666667 126:0.58 127:0.53333333 128:0.56666667 129:0.64666667 130:0.52666667 131:0.53333333 132:0.57333333 133:0.46666667 134:0.58666667 135:0.41333333 136:0.58 
18.98214688366499 0 0 0 0 0 0 3:0.015748031 4:0.12992126 5:0.047244094 6:0.25984252 7:0.082677165 8:0.38582677 9:0.12992126 10:0.50393701 11:0.20866142 12:0.60629921 13:0.31496063 14:0.68110236 15:0.43700787 16:0.72834646 17:0.56692913 18:0.73228346 19:0.68503937 20:0.71653543 21:0.77952756 22:0.65354331 23:0.86220472 24:0.56299213 25:0.92125984 26:0.4488189 27:0.95669291 28:0.32677165 29:0.98031496 30:0.2007874 31:1 32:0.07480315 33:1 34:-0.05511811 35:0.11417323 36:-0.062992126 37:0.18503937 38:-0.11417323 39:0.27559055 40:-0.12598425 41:0.36614173 42:-0.11417323 43:0.4488189 44:-0.078740157 45:0.61417323 46:-0.10629921 47:0.68897638 48:-0.15354331 49:0.77559055 50:-0.17716535 51:0.86220472 52:-0.17716535 53:0.93700787 54:-0.12992126 55:0.53543307 56:0.011811024 57:0.54330709 58:0.10629921 59:0.5511811 60:0.2007874 61:0.55511811 62:0.29527559 63:0.46062992 64:0.35826772 65:0.50787402 66:0.36614173 67:0.55511811 68:0.37795276 69:0.6023622 70:0.35826772 71:0.64173228 72:0.34251969 73:0.22440945 74:0.027559055 75:0.27559055 76:-0.0078740157 77:0.34251969 78:-0.0078740157 79:0.39370079 80:0.043307087 81:0.33464567 82:0.05511811 83:0.27165354 84:0.05511811 85:0.66535433 86:0.019685039 87:0.71259843 88:-0.039370079 89:0.77559055 90:-0.05511811 91:0.83464567 92:-0.027559055 93:0.79133858 94:0.0078740157 95:0.72834646 96:0.019685039 97:0.35826772 98:0.48818898 99:0.44094488 100:0.47244094 101:0.51181102 102:0.45669291 103:0.55905512 104:0.46456693 105:0.60629921 106:0.44488189 107:0.66929134 108:0.45275591 109:0.74015748 110:0.45669291 111:0.67716535 112:0.53543307 113:0.61811024 114:0.57480315 115:0.56692913 116:0.59055118 117:0.51181102 118:0.58661417 119:0.44094488 120:0.55905512 121:0.38582677 122:0.49606299 123:0.51574803 124:0.51181102 125:0.56299213 126:0.51181102 127:0.61023622 128:0.5 129:0.71259843 130:0.46850394 131:0.61417323 132:0.50393701 133:0.56299213 134:0.51574803 135:0.51574803 136:0.51574803 
30 0 0 0 0 0 0 3:0.026415094 4:0.1245283 5:0.064150943 6:0.24150943 7:0.10566038 8:0.3509434 9:0.15849057 10:0.45660377 11:0.23396226 12:0.53962264 13:0.33962264 14:0.59622642 15:0.46037736 16:0.62264151 17:0.59245283 18:0.61886792 19:0.72830189 20:0.60377358 21:0.8490566 22:0.5509434 23:0.93207547 24:0.45660377 25:0.98867925 26:0.33207547 27:1 28:0.18867925 29:1 30:0.049056604 31:1 32:-0.086792453 33:0.98113208 34:-0.22641509 35:0.0037735849 36:-0.079245283 37:0.049056604 38:-0.13584906 39:0.12830189 40:-0.1509434 41:0.21132075 42:-0.1509434 43:0.29811321 44:-0.13962264 45:0.45660377 46:-0.17358491 47:0.54716981 48:-0.21886792 49:0.64150943 50:-0.26037736 51:0.74716981 52:-0.27924528 53:0.85283019 54:-0.25283019 55:0.39245283 56:-0.071698113 57:0.40377358 58:0.01509434 59:0.41509434 60:0.098113208 61:0.42264151 62:0.18490566 63:0.36603774 64:0.27169811 65:0.41132075 66:0.2754717 67:0.45660377 68:0.27169811 69:0.50188679 70:0.25283019 71:0.54716981 72:0.23396226 73:0.10943396 74:-0.022641509 75:0.15471698 76:-0.075471698 77:0.23018868 78:-0.086792453 79:0.29433962 80:-0.033962264 81:0.23396226 82:-0.0075471698 83:0.15849057 85:0.55471698 86:-0.083018868 87:0.60754717 88:-0.15849057 89:0.68301887 90:-0.17358491 91:0.75471698 92:-0.14716981 93:0.70566038 94:-0.098113208 95:0.62641509 96:-0.083018868 97:0.31698113 98:0.44150943 99:0.37735849 100:0.41886792 101:0.43773585 102:0.38867925 103:0.48679245 104:0.39622642 105:0.53207547 106:0.36981132 107:0.62264151 108:0.36603774 109:0.71698113 110:0.3509434 111:0.6490566 112:0.44150943 113:0.57358491 114:0.48301887 115:0.52075472 116:0.49811321 117:0.46792453 118:0.50188679 119:0.39622642 120:0.49433962 121:0.33962264 122:0.44528302 123:0.44528302 124:0.43773585 125:0.49433962 126:0.43396226 127:0.54339623 128:0.41886792 129:0.69056604 130:0.36981132 131:0.5509434 132:0.41509434 133:0.50188679 134:0.43396226 135:0.45283019 136:0.43773585 
0 0 4.980545013245416 0 0 0 0 3:0.030792918 4:0.12240185 5:0.066204773 6:0.24095458 7:0.1139338 8:0.35642802 9:0.17859892 10:0.46035412 11:0.27713626 12:0.53656659 13:0.4095458 14:0.57505774 15:0.55119323 16:0.59122402 17:0.68745189 18:0.58660508 19:0.80138568 20:0.54888376 21:0.88529638 22:0.48267898 23:0.95688992 24:0.39030023 25:0.99307159 26:0.2786759 27:1 28:0.15550423 29:0.98768283 30:0.032332564 31:0.96073903 32:-0.090069284 33:0.926097 34:-0.2047729 35:0.057736721 36:-0.20400308 37:0.10623557 38:-0.28791378 39:0.18860662 40:-0.34257121 41:0.28714396 42:-0.35719784 43:0.37798306 44:-0.33718245 45:0.56658968 46:-0.37182448 47:0.63741339 48:-0.42186297 49:0.71670516 50:-0.43648961 51:0.79291763 52:-0.42109315 53:0.84372594 54:-0.36643572 55:0.51116243 56:-0.24403387 57:0.53810624 58:-0.17474981 59:0.56581986 60:-0.10931486 61:0.59199384 62:-0.03926097 63:0.48344881 64:0.071593533 65:0.5404157 66:0.074672825 67:0.59584296 68:0.077752117 69:0.63895304 70:0.053887606 71:0.67898383 72:0.030792918 73:0.19091609 74:-0.13779831 75:0.23633564 76:-0.18321786 77:0.29715166 78:-0.19399538 79:0.36258661 80:-0.16474211 81:0.30946882 82:-0.14703618 83:0.24788299 84:-0.13548884 85:0.62047729 86:-0.21170131 87:0.66820631 88:-0.26327945 89:0.72671286 90:-0.27482679 91:0.78137028 92:-0.25096228 93:0.74210931 94:-0.22863741 95:0.68437259 96:-0.21555042 97:0.37490377 98:0.27713626 99:0.45881447 100:0.21324095 101:0.54657429 102:0.17936875 103:0.60662048 104:0.18090839 105:0.66589684 106:0.1578137 107:0.74595843 108:0.16166282 109:0.81909161 110:0.19245574 111:0.77290223 112:0.29176289 113:0.70361817 114:0.33487298 115:0.64049269 116:0.35257891 117:0.57736721 118:0.35796767 119:0.48036952 120:0.3456505 121:0.40569669 122:0.27097768 123:0.55581216 124:0.21862972 125:0.61354888 126:0.2147806 127:0.67359507 128:0.19707467 129:0.79214781 130:0.19861432 131:0.68745189 132:0.2786759 133:0.62509623 134:0.29484219 135:0.56505004 136:0.30100077 
0 3.484632967609699 0 0 0 0 0 3:-0.0082872928 4:0.15745856 5:-0.011049724 6:0.3121547 7:0.0027624309 8:0.45303867 9:0.052486188 10:0.5718232 11:0.13535912 12:0.67955801 13:0.21270718 14:0.77348066 15:0.29005525 16:0.86740331 17:0.39226519 18:0.90607735 19:0.49447514 20:0.88950276 21:0.59392265 22:0.82044199 23:0.69337017 24:0.75138122 25:0.79281768 26:0.67955801 27:0.87569061 28:0.5801105 29:0.93093923 30:0.46132597 31:0.96685083 32:0.32596685 33:1 34:0.17955801 35:0.063535912 36:0.074585635 37:0.14917127 38:0.033149171 39:0.25138122 40:0.038674033 41:0.3480663 42:0.060773481 43:0.44198895 44:0.10497238 45:0.58563536 46:0.12430939 47:0.68232044 48:0.11325967 49:0.77900552 50:0.11878453 51:0.86740331 52:0.14088398 53:0.93093923 54:0.19889503 55:0.5 56:0.26519337 57:0.48618785 58:0.35359116 59:0.47237569 60:0.44198895 61:0.4558011 62:0.5359116 63:0.33425414 64:0.54143646 65:0.38950276 66:0.56629834 67:0.44198895 68:0.59392265 69:0.5 70:0.58287293 71:0.55801105 72:0.57458564 73:0.1519337 74:0.19060773 75:0.22375691 76:0.18232044 77:0.29558011 78:0.20165746 79:0.34530387 80:0.25690608 81:0.27624309 82:0.25414365 83:0.20441989 84:0.23756906 85:0.62430939 86:0.30110497 87:0.69060773 88:0.25966851 89:0.76243094 90:0.26243094 91:0.82596685 92:0.28453039 93:0.76519337 94:0.31767956 95:0.69060773 96:0.31491713 97:0.19889503 98:0.59392265 99:0.29834254 100:0.62430939 101:0.3839779 102:0.63259669 103:0.4281768 104:0.64917127 105:0.48066298 106:0.64640884 107:0.55801105 108:0.66574586 109:0.64088398 110:0.66022099 111:0.54696133 112:0.75690608 113:0.46685083 114:0.80110497 115:0.40883978 116:0.79834254 117:0.35635359 118:0.78176796 119:0.28176796 120:0.71546961 121:0.23480663 122:0.61325967 123:0.37569061 124:0.65469613 125:0.42265193 126:0.66850829 127:0.47513812 128:0.67127072 129:0.60497238 130:0.67127072 131:0.47237569 132:0.7320442 133:0.41712707 134:0.7320442 135:0.36740331 136:0.71546961 
30 16.40341252525617 14.49694874724097 30 20.99967835970739 24.43812769168686 15.56918296407969 3:-0.0020576132 4:0.12345679 5:0.0041152263 6:0.24279835 7:0.012345679 8:0.3600823 9:0.034979424 10:0.4691358 11:0.094650206 12:0.55555556 13:0.19341564 14:0.60288066 15:0.30864198 16:0.62345679 17:0.44444444 18:0.62139918 19:0.57407407 20:0.61934156 21:0.69547325 22:0.59259259 23:0.80452675 24:0.54320988 25:0.87654321 26:0.46502058 27:0.92798354 28:0.36831276 29:0.95679012 30:0.26337449 31:0.97736626 32:0.15432099 33:1 34:0.041152263 35:0.051440329 36:-0.1090535 37:0.11934156 38:-0.17901235 39:0.22427984 40:-0.19753086 41:0.32921811 42:-0.1872428 43:0.43004115 44:-0.15020576 45:0.5617284 46:-0.15020576 47:0.66666667 48:-0.17078189 49:0.76954733 50:-0.17695473 51:0.86419753 52:-0.15226337 53:0.91769547 54:-0.08436214 55:0.49588477 56:-0.049382716 57:0.49176955 58:0.043209877 59:0.48765432 60:0.13374486 61:0.48353909 62:0.22427984 63:0.37654321 64:0.28600823 65:0.42386831 66:0.29423868 67:0.4691358 68:0.30452675 69:0.51851852 70:0.30246914 71:0.56790123 72:0.2962963 73:0.16049383 74:-0.049382716 75:0.21604938 76:-0.090534979 77:0.29423868 78:-0.088477366 79:0.35390947 80:-0.032921811 81:0.29012346 82:-0.020576132 83:0.21193416 84:-0.020576132 85:0.61522634 86:-0.024691358 87:0.68106996 88:-0.076131687 89:0.75514403 90:-0.067901235 91:0.80658436 92:-0.026748971 93:0.75514403 94:-0.0020576132 95:0.68106996 96:-0.0061728395 97:0.281893 98:0.45473251 99:0.34773663 100:0.42592593 101:0.41358025 102:0.40534979 103:0.44855967 104:0.4218107 105:0.49176955 106:0.41152263 107:0.54526749 108:0.4382716 109:0.59670782 110:0.46707819 111:0.53703704 112:0.45884774 113:0.48148148 114:0.46090535 115:0.43621399 116:0.46296296 117:0.39711934 118:0.46090535 119:0.33744856 120:0.45679012 121:0.30864198 122:0.45061728 123:0.40946502 124:0.44650206 125:0.44650206 126:0.45061728 127:0.48971193 128:0.44855967 129:0.56790123 130:0.46296296 131:0.48353909 132:0.40123457 133:0.44032922 134:0.40329218 135:0.40534979 136:0.40329218 
11.25984260806488 2.629702311724016 0 0 0 0 0 3:-0.013605442 4:0.10884354 5:-0.013605442 6:0.2244898 8:0.34013605 9:0.020408163 10:0.46258503 11:0.054421769 12:0.57823129 13:0.10884354 14:0.68027211 15:0.18367347 16:0.7755102 17:0.29931973 18:0.82312925 19:0.43537415 20:0.82312925 21:0.57823129 22:0.7755102 23:0.71428571 24:0.70748299 25:0.82993197 26:0.6122449 27:0.89795918 28:0.48979592 29:0.94557823 30:0.36054422 31:0.97278912 32:0.23129252 33:1 34:0.088435374 35:0.020408163 36:-0.10204082 37:0.074829932 38:-0.14965986 39:0.14965986 40:-0.15646259 41:0.2244898 42:-0.13605442 43:0.29251701 44:-0.095238095 45:0.45578231 46:-0.10204082 47:0.55102041 48:-0.13605442 49:0.6462585 50:-0.14965986 51:0.7414966 52:-0.12244898 53:0.81632653 54:-0.06122449 55:0.3537415 56:0.013605442 57:0.34013605 58:0.081632653 59:0.31972789 60:0.14965986 61:0.29931973 62:0.21088435 63:0.23129252 64:0.29251701 65:0.26530612 66:0.31972789 67:0.30612245 68:0.33333333 69:0.36054422 70:0.32653061 71:0.41496599 72:0.31292517 73:0.10204082 74:0.013605442 75:0.14965986 76:-0.020408163 77:0.21768707 78:-0.013605442 79:0.26530612 80:0.034013605 81:0.20408163 82:0.040816327 83:0.14285714 84:0.040816327 85:0.51020408 86:0.047619048 87:0.57142857 88:0.0068027211 89:0.63945578 90:0.013605442 91:0.70068027 92:0.054421769 93:0.63945578 94:0.068027211 95:0.57142857 96:0.068027211 97:0.14965986 98:0.46258503 99:0.20408163 100:0.40816327 101:0.26530612 102:0.39455782 103:0.30612245 104:0.40816327 105:0.36054422 106:0.40136054 107:0.44217687 108:0.42857143 109:0.55102041 110:0.47619048 111:0.43537415 112:0.53741497 113:0.36054422 114:0.55782313 115:0.29931973 116:0.56462585 117:0.25170068 118:0.55102041 119:0.19727891 120:0.5170068 121:0.18367347 122:0.46258503 123:0.26530612 124:0.43537415 125:0.30612245 126:0.44217687 127:0.36054422 128:0.44217687 129:0.50340136 130:0.47619048 131:0.36054422 132:0.50340136 133:0.30612245 134:0.50340136 135:0.2585034 136:0.49659864 
30 0 0 0 0 0 0 3:0.0058479532 4:0.10526316 5:0.029239766 6:0.20175439 7:0.067251462 8:0.30409357 9:0.10526316 10:0.40935673 11:0.16081871 12:0.51461988 13:0.22807018 14:0.60818713 15:0.3128655 16:0.67836257 17:0.42690058 18:0.69298246 19:0.56725146 20:0.68421053 21:0.71052632 22:0.63450292 23:0.84210526 24:0.55555556 25:0.94444444 26:0.44444444 27:0.99122807 28:0.30701754 29:1 30:0.15497076 31:0.99707602 32:0.0058479532 33:0.99122807 34:-0.14327485 35:-0.029239766 36:-0.11988304 37:0.0029239766 38:-0.17836257 39:0.070175439 40:-0.1871345 41:0.14035088 42:-0.1754386 43:0.20760234 44:-0.15204678 45:0.33625731 46:-0.1754386 47:0.43274854 48:-0.22807018 49:0.54093567 50:-0.25438596 51:0.65497076 52:-0.25438596 53:0.75438596 54:-0.21345029 55:0.28070175 56:-0.078947368 57:0.27777778 58:0.0087719298 59:0.27192982 60:0.093567251 61:0.26315789 62:0.18421053 63:0.23391813 64:0.25146199 65:0.26608187 66:0.26900585 67:0.30994152 68:0.28070175 69:0.35964912 70:0.25730994 71:0.40935673 72:0.23976608 73:0.064327485 74:-0.038011696 75:0.10233918 76:-0.076023392 77:0.16374269 78:-0.084795322 79:0.22222222 80:-0.043859649 81:0.16374269 82:-0.032163743 83:0.10526316 84:-0.026315789 85:0.47076023 86:-0.073099415 87:0.52923977 88:-0.12280702 89:0.59649123 90:-0.12865497 91:0.66374269 92:-0.10233918 93:0.60818713 94:-0.078947368 95:0.54093567 96:-0.073099415 97:0.19590643 98:0.41812865 99:0.22807018 100:0.38304094 101:0.28070175 102:0.35964912 103:0.32748538 104:0.37134503 105:0.37719298 106:0.35380117 107:0.47953216 108:0.36842105 109:0.59356725 110:0.39181287 111:0.49707602 112:0.47953216 113:0.40350877 114:0.52046784 115:0.34502924 116:0.52631579 117:0.29239766 118:0.52339181 119:0.23684211 120:0.48538012 121:0.22222222 122:0.42105263 123:0.28654971 124:0.4122807 125:0.33333333 126:0.4122807 127:0.38888889 128:0.40643275 129:0.55847953 130:0.4005848 131:0.38888889 132:0.43859649 133:0.33625731 134:0.44444444 135:0.28654971 136:0.43859649 
30 0 0 0 0 0 0 3:-0.027855153 4:0.13370474 5:-0.04178273 6:0.27019499 7:-0.038997214 8:0.40668524 9:-0.011142061 10:0.54038997 11:0.052924791 12:0.66016713 13:0.13927577 14:0.74930362 15:0.24791086 16:0.80779944 17:0.38718663 18:0.8189415 19:0.52924791 20:0.82451253 21:0.66852368 22:0.7994429 23:0.78830084 24:0.74651811 25:0.87465181 26:0.6545961 27:0.93314763 28:0.545961 29:0.9637883 30:0.42339833 31:0.98328691 32:0.30083565 33:1 34:0.17270195 35:0.13649025 36:-0.12256267 37:0.20334262 38:-0.2005571 39:0.30362117 40:-0.22005571 41:0.40668524 42:-0.20334262 43:0.49303621 44:-0.14763231 45:0.59052925 46:-0.13091922 47:0.69359331 48:-0.15041783 49:0.79665738 50:-0.13927577 51:0.88579387 52:-0.086350975 53:0.92479109 54:0.0055710306 55:0.52367688 56:-0.025069638 57:0.5097493 58:0.075208914 59:0.49582173 60:0.16991643 61:0.47910864 62:0.27019499 63:0.37047354 64:0.32033426 65:0.41504178 66:0.34261838 67:0.46518106 68:0.35933148 69:0.51810585 70:0.35376045 71:0.56824513 72:0.34818942 73:0.22562674 74:-0.013927577 75:0.28133705 76:-0.036211699 77:0.33704735 78:-0.030640669 79:0.3816156 81:0.33147632 82:0.0027855153 83:0.27576602 85:0.6545961 86:0.038997214 87:0.71866295 88:0.025069638 89:0.77158774 90:0.038997214 91:0.81058496 92:0.077994429 93:0.7632312 94:0.075208914 95:0.70752089 96:0.061281337 97:0.27576602 98:0.49303621 99:0.34261838 100:0.46518106 101:0.40947075 102:0.45125348 103:0.454039 104:0.4735376 105:0.5097493 106:0.46518106 107:0.57660167 108:0.49860724 109:0.63788301 110:0.54038997 111:0.56824513 112:0.58774373 113:0.49582173 114:0.60445682 115:0.43454039 116:0.60445682 117:0.3816156 118:0.59331476 119:0.32311978 120:0.55431755 121:0.29805014 122:0.49303621 123:0.40111421 124:0.50696379 125:0.44846797 126:0.51810585 127:0.50696379 128:0.51532033 129:0.61281337 130:0.53203343 131:0.50417827 132:0.52367688 133:0.44568245 134:0.5264624 135:0.39554318 136:0.51253482 
30 0 22.26187569859416 0 0 0 0 3:0.020833333 4:0.13194444 5:0.041666667 6:0.25694444 7:0.069444444 8:0.38888889 9:0.125 10:0.50694444 11:0.21527778 12:0.59027778 13:0.33333333 14:0.65972222 15:0.46527778 16:0.70833333 17:0.59722222 18:0.71527778 19:0.72916667 20:0.68055556 21:0.82638889 22:0.60416667 23:0.90972222 24:0.51388889 25:0.97222222 26:0.40972222 27:0.99305556 28:0.28472222 29:1 30:0.15972222 31:0.99305556 32:0.034722222 33:0.98611111 34:-0.083333333 35:0.10416667 36:-0.11805556 37:0.16666667 38:-0.1875 39:0.25 40:-0.20833333 41:0.34722222 42:-0.20138889 43:0.4375 44:-0.17361111 45:0.59027778 46:-0.19444444 47:0.67361111 48:-0.23611111 49:0.75694444 50:-0.25694444 51:0.84027778 52:-0.25 53:0.90277778 54:-0.19444444 55:0.52777778 56:-0.083333333 57:0.53472222 58:0.013888889 59:0.54861111 60:0.11111111 61:0.5625 62:0.20138889 63:0.44444444 64:0.25 65:0.50694444 66:0.27083333 67:0.5625 68:0.28472222 69:0.61805556 70:0.25694444 71:0.66666667 72:0.22916667 73:0.21527778 74:-0.034722222 75:0.26388889 76:-0.076388889 77:0.33333333 78:-0.083333333 79:0.38888889 80:-0.041666667 81:0.33333333 82:-0.027777778 83:0.26388889 84:-0.020833333 85:0.65972222 86:-0.069444444 87:0.70138889 88:-0.11805556 89:0.76388889 90:-0.125 91:0.81944444 92:-0.097222222 93:0.77083333 94:-0.069444444 95:0.71527778 96:-0.069444444 97:0.38888889 98:0.45138889 99:0.45833333 100:0.40972222 101:0.52083333 102:0.38194444 103:0.57638889 104:0.38888889 105:0.61805556 106:0.36805556 107:0.67361111 108:0.375 109:0.75 110:0.38888889 111:0.6875 112:0.4375 113:0.63888889 114:0.46527778 115:0.59027778 116:0.47916667 117:0.54166667 118:0.48611111 119:0.47222222 120:0.47222222 121:0.41666667 122:0.44444444 123:0.52777778 124:0.42361111 125:0.57638889 126:0.42361111 127:0.625 128:0.40972222 129:0.72222222 130:0.40277778 131:0.63194444 132:0.40972222 133:0.58333333 134:0.42361111 135:0.53472222 136:0.42361111 
30 0 0.9156119139171782 14.22271208618865 0 0 0 3:0.013888889 4:0.15277778 5:0.027777778 6:0.29861111 7:0.0625 8:0.44444444 9:0.13194444 10:0.5625 11:0.24305556 12:0.65277778 13:0.38194444 14:0.72916667 15:0.52083333 16:0.79166667 17:0.65277778 18:0.80555556 19:0.75694444 20:0.77777778 21:0.83333333 22:0.68055556 23:0.89583333 24:0.58333333 25:0.95138889 26:0.47916667 27:0.97916667 28:0.36111111 29:0.99305556 30:0.25 31:1 32:0.13194444 33:0.98611111 34:0.013888889 35:0.19444444 36:-0.076388889 37:0.26388889 38:-0.14583333 39:0.36111111 40:-0.16666667 41:0.45833333 42:-0.15972222 43:0.5625 44:-0.125 45:0.71527778 46:-0.125 47:0.79166667 48:-0.16666667 49:0.86111111 50:-0.18055556 51:0.93055556 52:-0.15972222 53:0.96527778 54:-0.097222222 55:0.64583333 56:-0.0069444444 57:0.65972222 58:0.090277778 59:0.67361111 60:0.1875 61:0.69444444 62:0.27777778 63:0.54861111 64:0.33333333 65:0.61111111 66:0.35416667 67:0.67361111 68:0.375 69:0.72222222 70:0.35416667 71:0.75694444 72:0.33333333 73:0.31944444 74:0.0069444444 75:0.375 76:-0.027777778 77:0.4375 78:-0.020833333 79:0.48611111 80:0.020833333 81:0.43055556 82:0.034722222 83:0.375 84:0.027777778 85:0.75 86:0.020833333 87:0.79861111 88:-0.020833333 89:0.85416667 90:-0.027777778 91:0.89583333 93:0.86111111 94:0.020833333 95:0.80555556 96:0.027777778 97:0.47222222 98:0.51388889 99:0.55555556 100:0.47916667 101:0.61805556 102:0.45833333 103:0.65972222 104:0.47222222 105:0.70138889 106:0.45833333 107:0.75694444 108:0.47916667 109:0.80555556 110:0.49305556 111:0.76388889 112:0.54166667 113:0.71527778 114:0.56944444 115:0.67361111 116:0.57638889 117:0.61805556 118:0.56944444 119:0.5625 120:0.55555556 121:0.50694444 122:0.51388889 123:0.61805556 124:0.51388889 125:0.65972222 126:0.51388889 127:0.70833333 128:0.50694444 129:0.77777778 130:0.5 131:0.71527778 132:0.50694444 133:0.66666667 134:0.52083333 135:0.61805556 136:0.51388889 
0 0 0 3.611514348272042 0 0 0 3:0.0028409091 4:0.11647727 5:0.017045455 6:0.23579545 7:0.039772727 8:0.34659091 9:0.068181818 10:0.46306818 11:0.125 12:0.56534091 13:0.20170455 14:0.64488636 15:0.30113636 16:0.69034091 17:0.43181818 18:0.69602273 19:0.58238636 20:0.67897727 21:0.72159091 22:0.63352273 23:0.83522727 24:0.55681818 25:0.92045455 26:0.45170455 27:0.95738636 28:0.32102273 29:0.97727273 30:0.19318182 31:0.99431818 32:0.065340909 33:1 34:-0.071022727 35:0.0056818182 36:-0.11647727 37:0.042613636 38:-0.20454545 39:0.125 40:-0.26136364 41:0.21875 42:-0.26988636 43:0.30965909 44:-0.24715909 45:0.41477273 46:-0.24715909 47:0.51136364 48:-0.28693182 49:0.62215909 50:-0.29261364 51:0.72727273 52:-0.25568182 53:0.80965909 54:-0.1875 55:0.36931818 56:-0.14488636 57:0.36363636 58:-0.0625 59:0.36079545 60:0.017045455 61:0.35511364 62:0.10227273 63:0.28125 64:0.1875 65:0.33238636 66:0.20454545 67:0.38636364 68:0.21875 69:0.44318182 70:0.19318182 71:0.49715909 72:0.16477273 73:0.11931818 74:-0.073863636 75:0.16477273 76:-0.11079545 77:0.22443182 78:-0.11931818 79:0.28409091 80:-0.09375 81:0.22727273 82:-0.082386364 83:0.17045455 84:-0.073863636 85:0.52272727 86:-0.11079545 87:0.58522727 88:-0.14488636 89:0.64772727 90:-0.14488636 91:0.70454545 92:-0.11647727 93:0.64772727 94:-0.10795455 95:0.58806818 96:-0.10795455 97:0.23011364 98:0.375 99:0.28125 100:0.32102273 101:0.34375 102:0.29545455 103:0.40056818 104:0.30397727 105:0.45738636 106:0.28409091 107:0.53977273 108:0.29829545 109:0.63068182 110:0.33238636 111:0.55113636 112:0.39204545 113:0.47159091 114:0.43181818 115:0.40909091 116:0.44318182 117:0.34943182 118:0.44318182 119:0.28693182 120:0.42613636 121:0.26136364 122:0.37215909 123:0.34659091 124:0.33806818 125:0.40056818 126:0.33806818 127:0.46306818 128:0.32670455 129:0.59943182 130:0.33806818 131:0.46590909 132:0.36931818 133:0.40340909 134:0.38068182 135:0.34659091 136:0.38352273 
17.15143151762736 0 0 0 0 0 0 3:0.032948929 4:0.12850082 5:0.084019769 6:0.24876442 7:0.1416804 8:0.36573311 9:0.2092257 10:0.46787479 11:0.30313015 12:0.54859967 13:0.42009885 14:0.59802306 15:0.54695222 16:0.62108731 17:0.67215815 18:0.60461285 19:0.77924217 20:0.55189456 21:0.86490939 22:0.46952224 23:0.94069193 24:0.37067545 25:0.98682043 26:0.25041186 27:1 28:0.12685338 29:0.99670511 30:0.0016474465 31:0.9785832 32:-0.12026359 33:0.94398682 34:-0.24052718 35:0.044481054 36:-0.13344316 37:0.087314662 38:-0.22240527 39:0.17627677 40:-0.27182867 41:0.27841845 42:-0.2800659 43:0.37726524 44:-0.26029654 45:0.53871499 46:-0.29983526 47:0.61943987 48:-0.35255354 49:0.70675453 50:-0.38714992 51:0.79901153 52:-0.38056013 53:0.86490939 54:-0.3261944 55:0.48764415 56:-0.18286656 57:0.50741351 58:-0.10873147 59:0.53047776 60:-0.032948929 61:0.55354201 62:0.042833608 63:0.46128501 64:0.13673806 65:0.51565074 66:0.14332784 67:0.57495881 68:0.14662273 69:0.62438221 70:0.1169687 71:0.66721582 72:0.087314662 73:0.16639209 74:-0.082372323 75:0.21416804 76:-0.14003295 77:0.28665568 78:-0.15156507 79:0.36902801 80:-0.1169687 81:0.29983526 82:-0.085667216 83:0.22734761 84:-0.067545305 85:0.61120264 86:-0.17957166 87:0.66062603 88:-0.24382208 89:0.73146623 90:-0.25700165 91:0.7907743 92:-0.2306425 93:0.75123558 94:-0.19275124 95:0.68039539 96:-0.17792422 97:0.39044481 98:0.34431631 99:0.46128501 100:0.27512356 101:0.53871499 102:0.24217463 103:0.59637562 104:0.24546952 105:0.65074135 106:0.21911038 107:0.72817133 108:0.21416804 109:0.80065898 110:0.23887974 111:0.75617792 112:0.32784185 113:0.69522241 114:0.38385502 115:0.63426689 116:0.40691928 117:0.57331137 118:0.41350906 119:0.48599671 120:0.39868204 121:0.42174629 122:0.33278418 123:0.54859967 124:0.28665568 125:0.6062603 126:0.27841845 127:0.66392092 128:0.25864909 129:0.77429984 130:0.24711697 131:0.6738056 132:0.31960461 133:0.61449753 134:0.34102142 135:0.5568369 136:0.34431631 
30 0 0 3.399125224656276 0 0 0 3:0.026578073 4:0.12624585 5:0.059800664 6:0.24252492 7:0.099667774 8:0.35880399 9:0.15282392 10:0.45847176 11:0.23920266 12:0.53156146 13:0.36877076 14:0.56478405 15:0.50166113 16:0.56810631 17:0.6345515 18:0.56146179 19:0.75415282 20:0.5448505 21:0.84717608 22:0.51495017 23:0.92358804 24:0.45182724 25:0.96345515 26:0.36212625 27:0.9833887 28:0.25581395 29:0.99335548 30:0.13953488 31:1 32:0.026578073 33:0.99335548 34:-0.089700997 35:0.11627907 36:-0.1627907 37:0.18272425 38:-0.23255814 39:0.27906977 40:-0.26578073 41:0.3820598 42:-0.26578073 43:0.47840532 44:-0.2358804 45:0.64451827 46:-0.24584718 47:0.72093023 48:-0.27906977 49:0.80066445 50:-0.29568106 51:0.88039867 52:-0.27906977 53:0.93355482 54:-0.22591362 55:0.57475083 56:-0.1461794 57:0.58471761 58:-0.069767442 59:0.59800664 61:0.60797342 62:0.07641196 63:0.49833887 64:0.15282392 65:0.55481728 66:0.16611296 67:0.60797342 68:0.17607973 69:0.65116279 70:0.15614618 71:0.68770764 72:0.13621262 73:0.24916944 74:-0.086378738 75:0.29900332 76:-0.11960133 77:0.35880399 78:-0.12624585 79:0.42192691 80:-0.10299003 81:0.3654485 82:-0.089700997 83:0.30564784 84:-0.083056478 85:0.68106312 86:-0.11627907 87:0.73754153 88:-0.15282392 89:0.79401993 90:-0.15614618 91:0.84385382 92:-0.12956811 93:0.79734219 94:-0.11960133 95:0.74418605 96:-0.11627907 97:0.38870432 98:0.32225914 99:0.47840532 100:0.28903654 101:0.55481728 102:0.26910299 103:0.60465116 104:0.27574751 105:0.65116279 106:0.25913621 107:0.71760797 108:0.27242525 109:0.78405316 110:0.28903654 111:0.72425249 112:0.32225914 113:0.66777409 114:0.33222591 115:0.6179402 116:0.33887043 117:0.56478405 118:0.34219269 119:0.48504983 120:0.34219269 121:0.41528239 122:0.32225914 123:0.55813953 124:0.30564784 125:0.60797342 126:0.30564784 127:0.65780731 128:0.29568106 129:0.75747508 130:0.2923588 131:0.66112957 132:0.2923588 133:0.61129568 134:0.29900332 135:0.56146179 136:0.30232558 
30 0 0 0 6.900834463249475 0 0 3:-0.0248307 4:0.10835214 5:-0.027088036 6:0.22121896 7:-0.011286682 8:0.33860045 9:0.015801354 10:0.45823928 11:0.063205418 12:0.57110609 13:0.12641084 14:0.65688488 15:0.21444695 16:0.72234763 17:0.33634312 18:0.74717833 19:0.4785553 20:0.74266366 21:0.6275395 22:0.70428894 23:0.76297968 24:0.64334086 25:0.86681716 26:0.55530474 27:0.93002257 28:0.43340858 29:0.96613995 30:0.30474041 31:0.98871332 32:0.18058691 33:1 34:0.047404063 35:0.015801354 36:-0.10383747 37:0.056433409 38:-0.17832957 39:0.13769752 40:-0.21218962 41:0.22799097 42:-0.21444695 43:0.31151242 44:-0.18058691 45:0.46501129 46:-0.1738149 47:0.57336343 48:-0.20541761 49:0.69074492 50:-0.1986456 51:0.79909707 52:-0.14672686 53:0.87133183 54:-0.06772009 55:0.37471783 56:-0.047404063 57:0.35891648 58:0.022573363 59:0.34085779 60:0.090293454 61:0.32505643 62:0.16027088 63:0.22799097 64:0.25507901 65:0.28216704 66:0.2731377 67:0.33860045 68:0.28893905 69:0.40857788 70:0.27990971 71:0.47629797 72:0.26862302 73:0.088036117 74:-0.013544018 75:0.14446953 76:-0.042889391 77:0.21218962 78:-0.042889391 79:0.27765237 80:-0.0022573363 81:0.20767494 82:0.006772009 83:0.13995485 84:0.006772009 85:0.54401806 86:0.0022573363 87:0.61625282 88:-0.033860045 89:0.68848758 90:-0.027088036 91:0.75620767 92:0.006772009 93:0.68623025 94:0.022573363 95:0.61173815 96:0.018058691 97:0.15801354 98:0.48081264 99:0.20767494 100:0.41986456 101:0.28216704 102:0.38148984 103:0.33860045 104:0.40180587 105:0.39277652 106:0.38600451 107:0.49209932 108:0.42663657 109:0.58239278 110:0.496614 111:0.48984199 112:0.56207675 113:0.39051919 114:0.58916479 115:0.32957111 116:0.59142212 117:0.26862302 118:0.58465011 119:0.20090293 120:0.55079007 121:0.18735892 122:0.48081264 123:0.27990971 124:0.46726862 125:0.33634312 126:0.4717833 127:0.39503386 128:0.46952596 129:0.5462754 130:0.49435666 131:0.39051919 132:0.49209932 133:0.33182844 134:0.49435666 135:0.27539503 136:0.48758465 
30 0 17.75032205585193 11.50994213713505 3.097038913540494 0 1.657295106931874 3:-0.02293578 4:0.1146789 5:-0.02293578 6:0.2293578 7:-0.0068807339 8:0.35091743 9:0.016055046 10:0.47477064 11:0.061926606 12:0.58715596 13:0.1353211 14:0.66972477 15:0.23394495 16:0.72247706 17:0.3646789 18:0.74311927 19:0.51146789 20:0.74311927 21:0.65825688 22:0.71788991 23:0.78899083 24:0.66972477 25:0.88073394 26:0.58027523 27:0.93348624 28:0.4587156 29:0.96330275 30:0.33027523 31:0.98853211 32:0.20642202 33:1 34:0.080275229 35:0.041284404 36:-0.12844037 37:0.098623853 38:-0.18807339 39:0.18348624 40:-0.22018349 41:0.27752294 42:-0.22018349 43:0.36238532 44:-0.18577982 45:0.53899083 46:-0.17201835 47:0.63761468 48:-0.19724771 49:0.74541284 50:-0.18807339 51:0.83944954 52:-0.13990826 53:0.90366972 54:-0.061926606 55:0.43119266 56:-0.041284404 57:0.41743119 58:0.029816514 59:0.40366972 60:0.098623853 61:0.38761468 62:0.17201835 63:0.28440367 64:0.26834862 65:0.33715596 66:0.28211009 67:0.39678899 68:0.29587156 69:0.46330275 70:0.28899083 71:0.52752294 72:0.28211009 73:0.11926606 74:-0.013761468 75:0.17889908 76:-0.04587156 77:0.25 78:-0.043577982 79:0.31651376 80:0.002293578 81:0.24541284 82:0.013761468 83:0.17201835 84:0.0091743119 85:0.5940367 86:0.018348624 87:0.66513761 88:-0.02293578 89:0.74082569 90:-0.013761468 91:0.80504587 92:0.025229358 93:0.73623853 94:0.043577982 95:0.66284404 96:0.036697248 97:0.20412844 98:0.50917431 99:0.26376147 100:0.44266055 101:0.33944954 102:0.40825688 103:0.39220183 104:0.4266055 105:0.44036697 106:0.41513761 107:0.52752294 108:0.4587156 109:0.6146789 110:0.52981651 111:0.52522936 112:0.5733945 113:0.43577982 114:0.58256881 115:0.38073394 116:0.58027523 117:0.32568807 118:0.57568807 119:0.25458716 120:0.55275229 121:0.23165138 122:0.50458716 123:0.33486239 124:0.48853211 125:0.38761468 126:0.49541284 127:0.44036697 128:0.49541284 129:0.58027523 130:0.52522936 131:0.43807339 132:0.50229358 133:0.38761468 134:0.50229358 135:0.33256881 136:0.49311927 
7.288740920173749 0 0 19.01272407824621 0 0 8.932230602144847 3:0.0026246719 4:0.11286089 5:0.010498688 6:0.22572178 7:0.026246719 8:0.33595801 9:0.05511811 10:0.43044619 11:0.12073491 12:0.50393701 13:0.22572178 14:0.54593176 15:0.34645669 16:0.56430446 17:0.4855643 18:0.56692913 19:0.61942257 20:0.56692913 21:0.74278215 22:0.5511811 23:0.8503937 24:0.51181102 25:0.92125984 26:0.44619423 27:0.95800525 28:0.35695538 29:0.97900262 30:0.25459318 31:0.98950131 32:0.14698163 33:1 34:0.041994751 35:0.086614173 36:-0.15748031 37:0.12335958 38:-0.24671916 39:0.21259843 40:-0.29658793 41:0.32020997 42:-0.30446194 43:0.41732283 44:-0.27559055 45:0.59055118 46:-0.27034121 47:0.69816273 48:-0.28871391 49:0.80314961 50:-0.27296588 51:0.88713911 52:-0.22047244 53:0.91863517 54:-0.13648294 55:0.50656168 56:-0.16535433 57:0.50393701 58:-0.097112861 59:0.50393701 60:-0.031496063 61:0.50131234 62:0.039370079 63:0.35958005 64:0.11811024 65:0.42519685 66:0.13910761 67:0.49343832 68:0.15748031 69:0.56167979 70:0.14435696 71:0.62204724 72:0.1312336 73:0.17585302 74:-0.11548556 75:0.23622047 76:-0.15748031 77:0.30708661 78:-0.15748031 79:0.3648294 80:-0.11023622 81:0.30446194 82:-0.11286089 83:0.23622047 84:-0.11286089 85:0.64566929 86:-0.1023622 87:0.71128609 88:-0.13910761 89:0.77690289 90:-0.13648294 91:0.82414698 92:-0.089238845 93:0.77690289 94:-0.091863517 95:0.71391076 96:-0.097112861 97:0.25984252 98:0.33858268 99:0.34383202 100:0.27296588 101:0.43569554 102:0.24146982 103:0.48818898 104:0.25984252 105:0.54855643 106:0.2519685 107:0.63779528 108:0.29396325 109:0.70341207 110:0.36745407 111:0.63254593 112:0.38582677 113:0.54330709 114:0.39895013 115:0.48031496 116:0.39895013 117:0.42257218 118:0.39107612 119:0.33595801 120:0.37007874 121:0.29658793 122:0.33333333 123:0.43044619 124:0.31233596 125:0.4855643 126:0.31496063 127:0.54593176 128:0.3175853 129:0.67191601 130:0.35695538 131:0.54593176 132:0.33070866 133:0.48293963 134:0.32808399 135:0.42782152 136:0.32283465 
30 0 0 0 0 0 0 3:0.018648019 4:0.11421911 5:0.051282051 6:0.22377622 7:0.083916084 8:0.34265734 9:0.12354312 10:0.45454545 11:0.18881119 12:0.55477855 13:0.29137529 14:0.62237762 15:0.41025641 16:0.66899767 17:0.54778555 18:0.67365967 19:0.68065268 20:0.65501166 21:0.79020979 22:0.5967366 23:0.88111888 24:0.51282051 25:0.93939394 26:0.39393939 27:0.96969697 28:0.27039627 29:0.98834499 30:0.14452214 31:1 32:0.016317016 33:0.995338 34:-0.11421911 35:0.032634033 36:-0.12820513 37:0.086247086 38:-0.2027972 39:0.17249417 40:-0.22377622 41:0.26107226 42:-0.21678322 43:0.34965035 44:-0.19347319 45:0.50815851 46:-0.21212121 47:0.5990676 48:-0.25874126 49:0.69463869 50:-0.28671329 51:0.7995338 52:-0.28438228 53:0.88344988 54:-0.22843823 55:0.44055944 56:-0.10722611 57:0.45221445 58:-0.006993007 59:0.46153846 60:0.086247086 61:0.47086247 62:0.17948718 63:0.38461538 64:0.24242424 65:0.43356643 66:0.25641026 67:0.48484848 68:0.26340326 69:0.53846154 70:0.24242424 71:0.58741259 72:0.22144522 73:0.15151515 74:-0.065268065 75:0.2027972 76:-0.11188811 77:0.26806527 78:-0.11421911 79:0.32167832 80:-0.065268065 81:0.26573427 82:-0.048951049 83:0.2027972 84:-0.044289044 85:0.59440559 86:-0.088578089 87:0.64801865 88:-0.14918415 89:0.71794872 90:-0.16083916 91:0.77389277 92:-0.12587413 93:0.72960373 94:-0.093240093 95:0.66200466 96:-0.086247086 97:0.31002331 98:0.4009324 99:0.38228438 100:0.37062937 101:0.44755245 102:0.34731935 103:0.4988345 104:0.35431235 105:0.55244755 106:0.33333333 107:0.62703963 108:0.34265734 109:0.71095571 110:0.35198135 111:0.64102564 112:0.42890443 113:0.57109557 114:0.46386946 115:0.51282051 116:0.47552448 117:0.45687646 118:0.47552448 119:0.38694639 120:0.45687646 121:0.33566434 122:0.40792541 123:0.44988345 124:0.39160839 125:0.5034965 126:0.38927739 127:0.55710956 128:0.37762238 129:0.68298368 130:0.36363636 131:0.55944056 132:0.4009324 133:0.50582751 134:0.41258741 135:0.45221445 136:0.41258741 
30 0 0 7.653936446746091 0 0 0 3:-0.010998308 4:0.12774958 6:0.2571912 7:0.016920474 8:0.38747885 9:0.041455161 10:0.50930626 11:0.077834179 12:0.62944162 13:0.13705584 14:0.72927242 15:0.21573604 16:0.8071066 17:0.33502538 18:0.83840948 19:0.47292724 20:0.83164129 21:0.60152284 22:0.78257191 23:0.72250423 24:0.70896785 25:0.82318105 26:0.60829103 27:0.89424704 28:0.48477157 29:0.94247039 30:0.34602369 31:0.97715736 32:0.20304569 33:1 34:0.055837563 35:0.042301184 36:-0.1319797 37:0.083756345 38:-0.19966159 39:0.16159052 40:-0.21827411 41:0.24111675 42:-0.20389171 43:0.31387479 44:-0.16159052 45:0.50676819 46:-0.15736041 47:0.5998308 48:-0.18697124 49:0.69543147 50:-0.19204738 51:0.78680203 52:-0.15566836 53:0.84856176 54:-0.082064298 55:0.39509306 56:-0.0093062606 57:0.37732657 58:0.10406091 59:0.35956007 60:0.21489002 61:0.34094755 62:0.3248731 63:0.24534687 64:0.34856176 65:0.29187817 66:0.38240271 67:0.34856176 68:0.41032149 69:0.4213198 70:0.38832487 71:0.48646362 72:0.3680203 73:0.12351946 74:-0.0033840948 75:0.17005076 76:-0.031302876 77:0.22758037 78:-0.016920474 79:0.27664975 80:0.032994924 81:0.21658206 82:0.039763113 83:0.15736041 84:0.030456853 85:0.56175973 86:0.050761421 87:0.61590525 88:0.0084602369 89:0.67935702 90:0.010998308 91:0.73011844 92:0.047377327 93:0.68104907 94:0.074450085 95:0.61675127 96:0.074450085 97:0.17935702 98:0.51099831 99:0.24111675 100:0.50169205 101:0.29610829 102:0.50084602 103:0.34602369 104:0.5177665 105:0.40862944 106:0.50846024 107:0.4822335 108:0.51692047 109:0.56852792 110:0.53637902 111:0.47884941 112:0.56175973 113:0.39763113 114:0.57614213 115:0.33502538 116:0.57698816 117:0.28172589 118:0.56598985 119:0.23011844 120:0.54737733 121:0.20304569 122:0.5143824 123:0.29103215 124:0.52876481 125:0.34433164 126:0.54060914 127:0.40609137 128:0.53637902 129:0.54060914 130:0.53468697 131:0.4035533 132:0.53468697 133:0.34179357 134:0.53722504 135:0.2893401 136:0.52622673 
30 0 6.512718171584281 0 0 0 0 3:-0.022988506 4:0.091954023 5:-0.029885057 6:0.1954023 7:-0.011494253 8:0.30344828 9:0.032183908 10:0.40229885 11:0.087356322 12:0.48965517 13:0.14712644 14:0.5862069 15:0.19770115 16:0.68735632 17:0.27586207 18:0.75862069 19:0.38850575 20:0.77931034 21:0.53563218 22:0.72873563 23:0.68505747 24:0.64827586 25:0.82758621 26:0.56321839 27:0.93793103 28:0.44827586 29:0.98850575 30:0.29655172 31:0.99310345 32:0.13333333 33:1 34:-0.043678161 35:-0.066666667 36:-0.17241379 37:-0.04137931 38:-0.2 39:0.0091954023 40:-0.1908046 41:0.064367816 42:-0.17011494 43:0.11954023 44:-0.13793103 45:0.25287356 46:-0.14712644 47:0.36091954 48:-0.19770115 49:0.48735632 50:-0.21609195 51:0.6045977 52:-0.18850575 53:0.70344828 54:-0.11954023 55:0.1908046 56:-0.032183908 57:0.17241379 58:0.055172414 59:0.14712644 60:0.14022989 61:0.12413793 62:0.22988506 63:0.082758621 64:0.27586207 65:0.11724138 66:0.30804598 67:0.16781609 68:0.32643678 69:0.22528736 70:0.31264368 71:0.28735632 72:0.30114943 73:0.0022988506 74:-0.048275862 75:0.04137931 76:-0.082758621 77:0.10114943 78:-0.08045977 79:0.15402299 80:-0.027586207 81:0.096551724 82:-0.013793103 83:0.036781609 84:-0.018390805 85:0.37931034 86:-0.016091954 87:0.44137931 88:-0.068965517 89:0.51494253 90:-0.066666667 91:0.58850575 92:-0.029885057 93:0.51954023 94:-0.0022988506 95:0.44367816 96:-0.0022988506 97:0.11494253 98:0.4183908 99:0.13103448 100:0.4137931 101:0.16551724 102:0.4137931 103:0.2 104:0.42988506 105:0.23908046 106:0.42068966 107:0.34252874 108:0.43678161 109:0.47586207 110:0.43908046 111:0.34712644 112:0.49425287 113:0.25057471 114:0.51264368 115:0.20689655 116:0.50804598 117:0.17011494 118:0.49195402 119:0.13563218 120:0.46436782 121:0.13333333 122:0.42988506 123:0.16781609 124:0.44367816 125:0.20229885 126:0.45287356 127:0.24367816 128:0.45517241 129:0.43908046 130:0.44597701 131:0.24367816 132:0.45977011 133:0.20229885 134:0.45287356 135:0.16781609 136:0.44137931 
5.486942480986757 2.593762770396454 5.199113195002148 4.311575721810589 0 0 0 3:0.025252525 4:0.11111111 5:0.065656566 6:0.22222222 7:0.10606061 8:0.33333333 9:0.16666667 10:0.43434343 11:0.25252525 12:0.52020202 13:0.35353535 14:0.58585859 15:0.46969697 16:0.61616162 17:0.59090909 18:0.61111111 19:0.70707071 20:0.57575758 21:0.80808081 22:0.50505051 23:0.89393939 24:0.3989899 25:0.95959596 26:0.27272727 27:0.98989899 28:0.14141414 29:1 30:0.0050505051 31:0.98989899 32:-0.14141414 33:0.96969697 34:-0.29292929 35:0.01010101 36:-0.16666667 37:0.035353535 38:-0.24242424 39:0.1010101 40:-0.2979798 41:0.19191919 42:-0.32828283 43:0.27777778 44:-0.32323232 45:0.40909091 46:-0.36868687 47:0.49494949 48:-0.41919192 49:0.6010101 50:-0.44444444 51:0.70707071 52:-0.43434343 53:0.7979798 54:-0.38888889 55:0.35858586 56:-0.25757576 57:0.36868687 58:-0.19191919 59:0.37878788 60:-0.13131313 61:0.38888889 62:-0.070707071 63:0.35353535 64:0.060606061 65:0.39393939 66:0.060606061 67:0.43939394 68:0.055555556 69:0.48484848 70:0.035353535 71:0.53030303 72:0.01010101 73:0.12121212 74:-0.12121212 75:0.15656566 76:-0.17676768 77:0.21212121 78:-0.1969697 79:0.27777778 80:-0.18181818 81:0.22727273 82:-0.15151515 83:0.17171717 84:-0.12626263 85:0.51515152 86:-0.25252525 87:0.56565657 88:-0.3030303 89:0.62626263 90:-0.31818182 91:0.69191919 92:-0.3030303 93:0.64141414 94:-0.27272727 95:0.58080808 96:-0.25757576 97:0.33333333 98:0.31313131 99:0.36868687 100:0.21717172 101:0.42424242 102:0.16161616 103:0.47474747 104:0.16161616 105:0.51515152 106:0.14141414 107:0.61111111 108:0.16161616 109:0.70707071 110:0.21212121 111:0.64141414 112:0.31818182 113:0.57070707 114:0.36868687 115:0.51515152 116:0.38383838 117:0.46464646 118:0.38888889 119:0.3989899 120:0.37878788 121:0.35858586 122:0.3030303 123:0.43939394 124:0.20707071 125:0.48484848 126:0.1969697 127:0.53030303 128:0.18181818 129:0.67676768 130:0.22222222 131:0.54545455 132:0.30808081 133:0.49494949 134:0.31818182 135:0.44949495 136:0.32828283 
30 0 0 30 0 0 0 3:0.0067567568 4:0.14864865 5:0.02027027 6:0.2972973 7:0.047297297 8:0.44594595 9:0.10810811 10:0.56756757 11:0.20945946 12:0.66891892 13:0.32432432 14:0.75675676 15:0.44594595 16:0.83108108 17:0.56081081 18:0.85135135 19:0.66891892 20:0.83108108 21:0.75 22:0.75 23:0.83108108 24:0.66216216 25:0.89864865 26:0.56081081 27:0.94594595 28:0.4527027 29:0.97297297 30:0.33108108 31:0.99324324 32:0.2027027 33:1 34:0.074324324 35:0.17567568 36:-0.054054054 37:0.25675676 38:-0.10135135 39:0.35135135 40:-0.10135135 41:0.4527027 42:-0.081081081 43:0.53378378 44:-0.033783784 45:0.69594595 46:-0.040540541 47:0.77027027 48:-0.067567568 49:0.85135135 50:-0.081081081 51:0.92567568 52:-0.067567568 53:0.96621622 54:-0.0067567568 55:0.61486486 56:0.074324324 57:0.61486486 58:0.16891892 59:0.61486486 60:0.26351351 61:0.62162162 62:0.35810811 63:0.49324324 64:0.38513514 65:0.5472973 66:0.40540541 67:0.60135135 68:0.43243243 69:0.65540541 70:0.41216216 71:0.69594595 72:0.39189189 73:0.29054054 74:0.067567568 75:0.34459459 76:0.040540541 77:0.41216216 78:0.047297297 79:0.45945946 80:0.087837838 81:0.40540541 82:0.094594595 83:0.33783784 84:0.087837838 85:0.72297297 86:0.10135135 87:0.77702703 88:0.067567568 89:0.83108108 90:0.067567568 91:0.87837838 92:0.094594595 93:0.83783784 94:0.10810811 95:0.77702703 96:0.10810811 97:0.37837838 98:0.54054054 99:0.46621622 100:0.50675676 101:0.54054054 102:0.49324324 103:0.58783784 104:0.50675676 105:0.63513514 106:0.5 107:0.68918919 108:0.50675676 109:0.74324324 110:0.52702703 111:0.68918919 112:0.60135135 113:0.64189189 114:0.62837838 115:0.58783784 116:0.63513514 117:0.54054054 118:0.63513514 119:0.45945946 120:0.60810811 121:0.39864865 122:0.54054054 123:0.54054054 124:0.52027027 125:0.58783784 126:0.52702703 127:0.63513514 128:0.52027027 129:0.70945946 130:0.53378378 131:0.64189189 132:0.57432432 133:0.58783784 134:0.58108108 135:0.54054054 136:0.58108108 
0 0 0 0 0 0 1.826666471600552 3:-0.030054645 4:0.13934426 5:-0.043715847 6:0.28415301 7:-0.040983607 8:0.42349727 9:-0.0081967213 10:0.55737705 11:0.06010929 12:0.68579235 13:0.13934426 14:0.79234973 15:0.2431694 16:0.8715847 17:0.38251366 18:0.90710383 19:0.52185792 20:0.90710383 21:0.64480874 22:0.85245902 23:0.75136612 24:0.77595628 25:0.8442623 26:0.67759563 27:0.90710383 28:0.56284153 29:0.95355191 30:0.44535519 31:0.9863388 32:0.32240437 33:1 34:0.18852459 35:0.15300546 36:-0.10382514 37:0.2431694 38:-0.14754098 39:0.34699454 40:-0.14480874 41:0.44535519 42:-0.11202186 43:0.52185792 44:-0.06010929 45:0.70765027 46:-0.035519126 47:0.79234973 48:-0.049180328 49:0.88251366 50:-0.035519126 51:0.95901639 52:0.0081967213 53:0.99453552 54:0.073770492 55:0.6010929 56:0.079234973 57:0.59562842 58:0.17759563 59:0.59016393 60:0.2704918 61:0.58743169 62:0.36612022 63:0.43715847 64:0.42896175 65:0.49453552 66:0.45081967 67:0.54644809 68:0.47540984 69:0.59836066 70:0.4726776 71:0.64754098 72:0.46994536 73:0.23224044 74:0.030054645 75:0.30601093 76:0.013661202 77:0.37431694 78:0.032786885 79:0.42896175 80:0.084699454 81:0.36065574 82:0.076502732 83:0.28961749 84:0.06010929 85:0.71311475 86:0.13661202 87:0.77868852 88:0.10382514 89:0.8442623 90:0.11202186 91:0.89071038 92:0.14754098 93:0.84153005 94:0.15300546 95:0.77595628 96:0.14754098 97:0.2431694 98:0.54098361 99:0.3442623 100:0.53551913 101:0.45628415 102:0.54098361 103:0.50546448 104:0.56557377 105:0.57103825 106:0.56284153 107:0.6420765 108:0.59016393 109:0.69672131 110:0.61748634 111:0.61748634 112:0.69398907 113:0.52459016 114:0.72131148 115:0.45901639 116:0.72131148 117:0.40437158 118:0.70491803 119:0.30874317 120:0.64480874 121:0.26229508 122:0.55191257 123:0.44262295 124:0.57923497 125:0.49453552 126:0.59562842 127:0.55737705 128:0.59836066 129:0.67213115 130:0.62295082 131:0.54371585 132:0.66393443 133:0.47814208 134:0.66393443 135:0.42622951 136:0.65027322 
30 0 0 30 0 0 5.239872268280805 3:-0.0035971223 4:0.11870504 5:0.0035971223 6:0.23381295 7:0.017985612 8:0.35611511 9:0.043165468 10:0.48561151 11:0.10431655 12:0.5971223 13:0.20143885 14:0.69064748 15:0.30935252 16:0.75899281 17:0.45683453 18:0.77338129 19:0.61510791 20:0.77697842 21:0.73381295 22:0.72302158 23:0.83093525 24:0.64028777 25:0.9028777 26:0.52877698 27:0.94244604 28:0.41007194 29:0.97122302 30:0.28776978 31:0.99280576 32:0.16546763 33:1 34:0.043165468 35:0.068345324 36:-0.10431655 37:0.12230216 38:-0.18345324 39:0.21582734 40:-0.21582734 41:0.32014388 42:-0.21582734 43:0.41726619 44:-0.19064748 45:0.58273381 46:-0.18705036 47:0.69064748 48:-0.20503597 49:0.79496403 50:-0.20143885 51:0.89568345 52:-0.15467626 53:0.94244604 54:-0.061151079 55:0.49640288 56:-0.082733813 57:0.48920863 58:0.010791367 59:0.47841727 60:0.10071942 61:0.4676259 62:0.19064748 63:0.36330935 64:0.25179856 65:0.41366906 66:0.27697842 67:0.47122302 68:0.29856115 69:0.5323741 70:0.28417266 71:0.59352518 72:0.26978417 73:0.17266187 74:-0.021582734 75:0.22661871 76:-0.053956835 77:0.29136691 78:-0.053956835 79:0.35971223 80:-0.025179856 81:0.29496403 82:-0.010791367 83:0.23021583 84:-0.0071942446 85:0.64028777 86:-0.010791367 87:0.71223022 88:-0.039568345 89:0.77697842 90:-0.035971223 91:0.82733813 93:0.77338129 94:0.010791367 95:0.70863309 96:0.0071942446 97:0.24820144 98:0.4028777 99:0.33453237 100:0.38129496 101:0.41366906 102:0.37410072 103:0.47122302 104:0.38489209 105:0.53597122 106:0.38129496 107:0.62230216 108:0.41007194 109:0.70503597 110:0.45683453 111:0.61510791 112:0.51079137 113:0.52877698 114:0.52877698 115:0.46402878 116:0.52877698 117:0.39928058 118:0.51438849 119:0.32374101 120:0.47482014 121:0.28776978 122:0.41726619 123:0.41007194 124:0.41726619 125:0.47122302 126:0.42446043 127:0.53597122 128:0.42805755 129:0.66906475 130:0.46043165 131:0.5323741 132:0.46402878 133:0.4676259 134:0.46402878 135:0.40647482 136:0.44964029 
30 0 0 0 0 0 0 3:-0.014184397 4:0.12765957 5:-0.014184397 6:0.26950355 7:-0.014184397 8:0.41134752 9:0.014184397 10:0.55319149 11:0.092198582 12:0.67375887 13:0.18439716 14:0.78014184 15:0.30496454 16:0.85815603 17:0.44680851 18:0.89361702 19:0.58865248 20:0.87943262 21:0.70212766 22:0.80141844 23:0.80141844 24:0.70921986 25:0.87943262 26:0.60992908 27:0.92907801 28:0.4893617 29:0.95744681 30:0.36170213 31:0.9858156 32:0.24113475 33:1 34:0.12056738 35:0.14184397 36:-0.078014184 37:0.22695035 38:-0.11347518 39:0.31914894 40:-0.09929078 41:0.40425532 42:-0.063829787 43:0.4893617 44:-0.021276596 45:0.62411348 46:-0.0070921986 47:0.71631206 48:-0.028368794 49:0.80141844 50:-0.035460993 51:0.88652482 52:-0.021276596 53:0.94326241 54:0.028368794 55:0.55319149 56:0.085106383 57:0.54609929 58:0.18439716 59:0.53900709 60:0.28368794 61:0.5248227 62:0.39007092 63:0.39716312 64:0.40425532 65:0.45390071 66:0.43262411 67:0.5106383 68:0.46099291 69:0.56737589 70:0.44680851 71:0.62411348 72:0.42553191 73:0.23404255 74:0.04964539 75:0.29078014 76:0.028368794 77:0.36170213 78:0.042553191 79:0.40425532 80:0.085106383 81:0.34042553 82:0.085106383 83:0.28368794 84:0.078014184 85:0.67375887 86:0.12056738 87:0.73758865 88:0.092198582 89:0.79432624 90:0.09929078 91:0.84397163 92:0.12765957 93:0.79432624 94:0.14184397 95:0.73049645 96:0.13475177 97:0.29787234 98:0.56028369 99:0.37588652 100:0.54609929 101:0.45390071 102:0.53191489 103:0.5035461 104:0.55319149 105:0.54609929 106:0.53900709 107:0.60992908 108:0.56737589 109:0.67375887 110:0.59574468 111:0.59574468 112:0.63829787 113:0.53900709 114:0.65957447 115:0.4893617 116:0.65957447 117:0.43971631 118:0.65248227 119:0.36879433 120:0.61702128 121:0.32624113 122:0.57446809 123:0.45390071 124:0.58156028 125:0.4964539 126:0.59574468 127:0.54609929 128:0.58865248 129:0.64539007 130:0.59574468 131:0.54609929 132:0.58865248 133:0.4964539 134:0.59574468 135:0.44680851 136:0.58865248 
28.42983181471563 0 0 0 0 0 0 4:0.15430267 5:0.014836795 6:0.30563798 7:0.045994065 8:0.44658754 9:0.10534125 10:0.58308605 11:0.19732938 12:0.6958457 13:0.32047478 14:0.78635015 15:0.45845697 16:0.83679525 17:0.59347181 18:0.83976261 19:0.70623145 20:0.82047478 21:0.78635015 22:0.74183976 23:0.85163205 24:0.64243323 25:0.91246291 26:0.53560831 27:0.95252226 28:0.42284866 29:0.98071217 30:0.30860534 31:0.99703264 32:0.1958457 33:0.99851632 34:0.080118694 35:0.17804154 36:0.014836795 37:0.26409496 38:-0.056379822 39:0.37982196 40:-0.090504451 41:0.50148368 42:-0.087537092 43:0.615727 44:-0.054896142 45:0.77744807 46:-0.053412463 47:0.85014837 48:-0.086053412 49:0.92581602 50:-0.10089021 51:0.9925816 52:-0.075667656 53:1 54:-0.0014836795 55:0.69287834 56:0.06379822 57:0.70326409 58:0.16172107 59:0.71513353 60:0.25816024 61:0.72700297 62:0.35756677 63:0.5727003 64:0.39465875 65:0.6305638 66:0.41394659 67:0.68249258 68:0.43323442 69:0.72997033 70:0.41988131 71:0.76409496 72:0.39762611 73:0.31008902 74:0.066765579 75:0.37537092 76:0.034124629 77:0.44658754 78:0.035608309 79:0.5074184 80:0.078635015 81:0.4421365 82:0.09347181 83:0.3694362 84:0.09495549 85:0.74332344 86:0.077151335 87:0.80860534 88:0.029673591 89:0.87537092 90:0.028189911 91:0.91691395 92:0.06231454 93:0.87833828 94:0.09347181 95:0.81305638 96:0.091988131 97:0.40356083 98:0.53709199 99:0.50148368 100:0.53709199 101:0.59198813 102:0.53560831 103:0.64540059 104:0.55192878 105:0.69732938 106:0.53857567 107:0.74925816 108:0.54005935 109:0.80118694 110:0.53709199 111:0.74332344 112:0.60385757 113:0.6884273 114:0.62611276 115:0.63501484 116:0.63353116 117:0.57863501 118:0.6305638 119:0.48961424 120:0.60534125 121:0.43323442 122:0.54451039 123:0.58753709 124:0.56973294 125:0.64243323 126:0.57715134 127:0.6958457 128:0.56973294 129:0.77448071 130:0.55341246 131:0.69139466 132:0.56676558 133:0.6379822 134:0.57566766 135:0.58456973 136:0.5727003 
25.90642027288896 0 1.66952221202317 0 0 0 0 3:-0.004341534 4:0.16208394 5:0.002894356 6:0.33719247 7:0.02894356 8:0.50217077 9:0.10274964 10:0.63531114 11:0.21418234 12:0.73516643 13:0.34732272 14:0.81186686 15:0.49493488 16:0.84949349 17:0.62083936 18:0.84804631 19:0.71490593 20:0.82633864 21:0.76700434 22:0.74529667 23:0.79884226 24:0.65701881 25:0.84949349 26:0.55137482 27:0.90448625 28:0.45730825 29:0.94934877 30:0.35890014 31:0.95947902 32:0.25180897 33:0.94790159 34:0.14905933 35:0.3357453 36:-0.033285094 37:0.43704776 38:-0.078147612 39:0.54703329 40:-0.091172214 41:0.65846599 42:-0.063675832 43:0.75832127 44:-0.026049204 45:0.86685962 46:-0.001447178 47:0.90593343 48:-0.018813314 49:0.94356006 50:-0.033285094 51:0.97684515 52:-0.041968162 53:1 54:-0.027496382 55:0.81476122 56:0.070911722 57:0.84081042 58:0.18089725 59:0.87120116 60:0.28798842 61:0.89725036 62:0.39363242 63:0.68017366 64:0.42691751 65:0.75108538 66:0.45296671 67:0.81620839 68:0.47612156 69:0.87120116 70:0.46454414 71:0.91316932 72:0.44138929 73:0.43849493 74:0.05065123 75:0.51085384 76:0.034732272 77:0.57308249 78:0.034732272 79:0.61070912 80:0.075253256 81:0.56150507 82:0.076700434 83:0.50361795 84:0.0723589 85:0.83646889 86:0.088277858 87:0.87698987 88:0.06512301 89:0.92329957 90:0.068017366 91:0.94211288 92:0.10130246 93:0.91606368 94:0.10853835 95:0.87698987 96:0.10130246 97:0.48625181 98:0.57163531 99:0.6121563 100:0.56729378 101:0.72214182 102:0.56729378 103:0.76700434 104:0.58610709 105:0.80173661 106:0.57597685 107:0.81620839 108:0.58321274 109:0.79160637 110:0.60492041 111:0.77279305 112:0.62952243 113:0.75108538 114:0.65267728 115:0.71635311 116:0.65846599 117:0.67004342 118:0.65267728 119:0.58031838 120:0.62228654 121:0.5195369 122:0.57597685 123:0.70622287 124:0.61360347 125:0.75542692 126:0.62083936 127:0.78581766 128:0.61939219 129:0.77713459 130:0.60781476 131:0.76845152 132:0.57742402 133:0.7366136 134:0.58755427 135:0.69175109 136:0.58465991 
13.36444743780825 0 5.352438845788805 0 0 3.876957110859966 0 3:0.036900369 4:0.15129151 5:0.084870849 6:0.29151292 7:0.14391144 8:0.42435424 9:0.21402214 10:0.5498155 11:0.30258303 12:0.66051661 13:0.40590406 14:0.75276753 15:0.54612546 16:0.79335793 17:0.68634686 18:0.78597786 19:0.80811808 20:0.74907749 21:0.88929889 22:0.65682657 23:0.94095941 24:0.53505535 25:0.97785978 26:0.40590406 27:0.99261993 28:0.27675277 29:1 30:0.1402214 31:0.99630996 32:0.0073800738 33:0.98523985 34:-0.12915129 35:0.051660517 36:-0.11439114 37:0.10332103 38:-0.2103321 39:0.20664207 40:-0.25461255 41:0.31365314 42:-0.24723247 43:0.41697417 44:-0.20295203 45:0.58302583 46:-0.22878229 47:0.66789668 48:-0.28413284 49:0.76752768 50:-0.3099631 51:0.86346863 52:-0.29151292 53:0.91881919 54:-0.21771218 55:0.52398524 56:-0.10332103 57:0.54612546 58:-0.0036900369 59:0.56826568 60:0.099630996 61:0.5904059 62:0.20295203 63:0.47232472 64:0.27306273 65:0.53505535 66:0.2804428 67:0.59778598 68:0.28782288 69:0.64575646 70:0.25830258 71:0.69372694 72:0.22878229 73:0.17712177 74:-0.025830258 75:0.23247232 76:-0.073800738 77:0.30627306 78:-0.081180812 79:0.3800738 80:-0.036900369 81:0.31365314 82:-0.0073800738 83:0.23616236 84:0.0036900369 85:0.64944649 86:-0.073800738 87:0.71217712 88:-0.12915129 89:0.78597786 90:-0.1402214 91:0.84132841 92:-0.10332103 93:0.79704797 94:-0.070110701 95:0.72324723 96:-0.05904059 97:0.38745387 98:0.49077491 99:0.45387454 100:0.4095941 101:0.53874539 102:0.36900369 103:0.60885609 104:0.37269373 105:0.67527675 106:0.34317343 107:0.75645756 108:0.35055351 109:0.81180812 110:0.40221402 111:0.78597786 112:0.53136531 113:0.71586716 114:0.60147601 115:0.64575646 116:0.62361624 117:0.57564576 118:0.63099631 119:0.47601476 120:0.59409594 121:0.41328413 122:0.49077491 123:0.5498155 124:0.41328413 125:0.61623616 126:0.40590406 127:0.68265683 128:0.38745387 129:0.78597786 130:0.41328413 131:0.69741697 132:0.53874539 133:0.63099631 134:0.56088561 135:0.56457565 136:0.56457565 
0 30 0 0 4.477719348522367 15.96118011944728 0 3:0.0078740157 4:0.13385827 5:0.025590551 6:0.26377953 7:0.05511811 8:0.38779528 9:0.092519685 10:0.50787402 11:0.1476378 12:0.62204724 13:0.22440945 14:0.71259843 15:0.31299213 16:0.77755906 17:0.42519685 18:0.8011811 19:0.54724409 20:0.79527559 21:0.67322835 22:0.75393701 23:0.78149606 24:0.67519685 25:0.86811024 26:0.56496063 27:0.92716535 28:0.44291339 29:0.96850394 30:0.31496063 31:0.98818898 32:0.16929134 33:1 34:0.0098425197 35:0.068897638 36:-0.045275591 37:0.11220472 38:-0.10629921 39:0.18897638 40:-0.12992126 41:0.26968504 42:-0.12204724 43:0.34251969 44:-0.092519685 45:0.47047244 46:-0.096456693 47:0.56496063 48:-0.12007874 49:0.66535433 50:-0.11811024 51:0.75984252 52:-0.084645669 53:0.83464567 54:-0.027559055 55:0.3996063 56:-0.011811024 57:0.38976378 58:0.080708661 59:0.37795276 60:0.17519685 61:0.36811024 62:0.26968504 63:0.2992126 64:0.30708661 65:0.33858268 66:0.33267717 67:0.38976378 68:0.3523622 69:0.4488189 70:0.33464567 71:0.50590551 72:0.31496063 73:0.14370079 74:-0.0019685039 75:0.19488189 76:-0.041338583 77:0.25590551 78:-0.039370079 79:0.30905512 80:0.0039370079 81:0.25 82:0.0098425197 83:0.19291339 84:0.0098425197 85:0.5492126 86:0.0098425197 87:0.60629921 88:-0.033464567 89:0.67125984 90:-0.029527559 91:0.72834646 92:0.0098425197 93:0.67125984 94:0.021653543 95:0.60826772 96:0.019685039 97:0.2480315 98:0.47834646 99:0.28346457 100:0.41929134 101:0.34645669 102:0.3996063 103:0.40748031 104:0.41338583 105:0.47637795 106:0.4015748 107:0.56496063 108:0.42519685 109:0.63385827 110:0.49212598 111:0.57283465 112:0.58661417 113:0.48818898 114:0.63976378 115:0.41338583 116:0.64566929 117:0.34645669 118:0.62992126 119:0.28543307 120:0.57283465 121:0.27559055 122:0.47834646 123:0.34645669 124:0.43897638 125:0.40944882 126:0.44488189 127:0.47637795 128:0.43897638 129:0.6023622 130:0.49015748 131:0.48228346 132:0.56496063 133:0.41338583 134:0.57283465 135:0.34645669 136:0.55314961 
30 0 0 0 0 0 0 3:-0.010344828 4:0.12068966 6:0.24827586 7:0.027586207 8:0.37241379 9:0.062068966 10:0.49655172 11:0.11724138 12:0.6137931 13:0.20344828 14:0.71034483 15:0.32068966 16:0.77241379 17:0.44482759 18:0.78275862 19:0.57931034 20:0.76896552 21:0.7137931 22:0.71034483 23:0.82068966 24:0.61724138 25:0.9 26:0.5 27:0.95172414 28:0.37586207 29:0.97931034 30:0.24827586 31:0.99310345 32:0.11034483 33:1 34:-0.031034483 35:0.048275862 36:-0.072413793 37:0.093103448 38:-0.14137931 39:0.16896552 40:-0.17241379 41:0.25172414 42:-0.16206897 43:0.32758621 44:-0.13103448 45:0.4862069 46:-0.13103448 47:0.57586207 48:-0.16551724 49:0.66551724 50:-0.17931034 51:0.75862069 52:-0.15862069 53:0.83103448 54:-0.10344828 55:0.41034483 56:-0.0068965517 57:0.40344828 58:0.096551724 59:0.4 60:0.19655172 61:0.39310345 62:0.3 63:0.3 64:0.33793103 65:0.35172414 66:0.35517241 67:0.40689655 68:0.37241379 69:0.46551724 70:0.35172414 71:0.52068966 72:0.33448276 73:0.13793103 74:0.0068965517 75:0.18965517 76:-0.013793103 77:0.24482759 78:-0.010344828 79:0.28965517 80:0.020689655 81:0.24137931 82:0.020689655 83:0.1862069 84:0.017241379 85:0.56206897 86:0.020689655 87:0.61724138 88:-0.013793103 89:0.67241379 90:-0.017241379 91:0.72758621 92:-0.0034482759 93:0.67586207 94:0.013793103 95:0.62068966 96:0.017241379 97:0.24137931 98:0.49310345 99:0.30344828 100:0.46551724 101:0.36206897 102:0.45172414 103:0.40689655 104:0.46551724 105:0.46551724 106:0.44827586 107:0.54827586 108:0.46206897 109:0.63793103 110:0.48275862 111:0.55862069 112:0.54482759 113:0.48275862 114:0.57931034 115:0.42068966 116:0.59310345 117:0.36896552 118:0.5862069 119:0.30689655 120:0.55517241 121:0.27586207 122:0.49655172 123:0.36206897 124:0.50344828 125:0.41034483 126:0.51034483 127:0.47241379 128:0.5 129:0.60689655 130:0.4862069 131:0.47586207 132:0.5 133:0.4137931 134:0.51034483 135:0.36896552 136:0.50344828 
8.797774415615912 0 5.643014638299455 0 0 0 0 3:-0.040983607 4:0.10860656 5:-0.057377049 6:0.22540984 7:-0.06147541 8:0.34221311 9:-0.057377049 10:0.46106557 11:-0.040983607 12:0.56762295 13:-0.006147541 14:0.65778689 15:0.047131148 16:0.72336066 17:0.14754098 18:0.74795082 19:0.28278689 20:0.75819672 21:0.44877049 22:0.76229508 23:0.62090164 24:0.75204918 25:0.76639344 26:0.71106557 27:0.85860656 28:0.61885246 29:0.91188525 30:0.4897541 31:0.95901639 32:0.35860656 33:1 34:0.22540984 35:0.038934426 36:-0.19672131 37:0.086065574 38:-0.23155738 39:0.14344262 40:-0.23155738 41:0.20286885 42:-0.22131148 43:0.25614754 44:-0.18237705 45:0.5 46:-0.16598361 47:0.59221311 48:-0.18237705 49:0.69057377 50:-0.15983607 51:0.77254098 52:-0.11270492 53:0.83196721 54:-0.045081967 55:0.34016393 56:-0.034836066 57:0.30532787 58:0.020491803 59:0.26639344 60:0.071721311 61:0.22745902 62:0.125 63:0.17622951 64:0.22336066 65:0.20491803 66:0.24180328 67:0.23770492 68:0.25819672 69:0.29098361 70:0.25819672 71:0.34836066 72:0.2602459 73:0.079918033 74:-0.030737705 75:0.125 76:-0.06147541 77:0.18647541 78:-0.051229508 79:0.24180328 80:-0.0040983607 81:0.17827869 83:0.11680328 84:-0.0040983607 85:0.51844262 86:0.034836066 87:0.58196721 88:0.0040983607 89:0.64959016 90:0.022540984 91:0.71311475 92:0.069672131 93:0.64344262 94:0.075819672 95:0.57581967 96:0.06147541 97:0.081967213 98:0.42213115 99:0.12295082 100:0.35860656 101:0.18647541 102:0.32991803 103:0.22336066 104:0.35040984 105:0.27459016 106:0.35040984 107:0.35860656 108:0.4057377 109:0.45286885 110:0.4897541 111:0.33606557 112:0.53893443 113:0.24590164 114:0.54303279 115:0.19057377 116:0.53688525 117:0.14754098 118:0.52663934 119:0.10040984 120:0.50204918 121:0.11065574 122:0.42213115 123:0.17827869 124:0.39959016 125:0.21721311 126:0.40778689 127:0.26639344 128:0.41803279 129:0.41803279 130:0.48360656 131:0.25614754 132:0.47336066 133:0.20696721 134:0.46516393 135:0.16803279 136:0.45901639 
4.990670075385896 0 0 0 0 0 0 3:-0.0077071291 4:0.12235067 5:-0.0057803468 6:0.25722543 7:0.021194605 8:0.38728324 9:0.073217726 10:0.49807322 11:0.15028902 12:0.58863198 13:0.2495183 14:0.66088632 15:0.36319846 16:0.70809249 17:0.49421965 18:0.72061657 19:0.62331407 20:0.72061657 21:0.72736031 22:0.68400771 23:0.81888247 24:0.62524085 25:0.89402697 26:0.54046243 27:0.94315992 28:0.43737958 29:0.97398844 30:0.3256262 31:0.99132948 32:0.21098266 33:1 34:0.098265896 35:0.15992293 36:-0.12620424 37:0.24084778 38:-0.16955684 39:0.33333333 40:-0.17630058 41:0.42485549 42:-0.15414258 43:0.50289017 44:-0.11175337 45:0.66377649 46:-0.097302505 47:0.73988439 48:-0.11849711 49:0.81599229 50:-0.12138728 51:0.88728324 52:-0.10019268 53:0.93737958 54:-0.048169557 55:0.57899807 56:0.0077071291 57:0.57514451 58:0.087668593 59:0.57129094 60:0.1628131 61:0.56743738 62:0.24084778 63:0.43737958 64:0.29576108 65:0.49229287 66:0.31406551 67:0.54624277 68:0.33236994 69:0.5982659 70:0.32755299 71:0.64547206 72:0.32369942 73:0.25915222 74:-0.0048169557 75:0.31599229 76:-0.024084778 77:0.37283237 78:-0.015414258 79:0.42100193 80:0.02504817 81:0.36608863 82:0.023121387 83:0.30828516 84:0.014450867 85:0.69460501 86:0.053949904 87:0.75529865 88:0.026974952 89:0.80924855 90:0.03371869 91:0.84971098 92:0.065510597 93:0.80635838 94:0.071290944 95:0.7504817 96:0.065510597 97:0.32466281 98:0.43063584 99:0.41425819 100:0.40366089 101:0.4894027 102:0.39402697 103:0.53853565 104:0.4132948 105:0.59248555 106:0.40751445 107:0.65414258 108:0.4344894 109:0.70712909 110:0.46820809 111:0.64643545 112:0.50578035 113:0.58477842 114:0.52601156 115:0.52793834 116:0.52601156 117:0.47302505 118:0.51348748 119:0.40462428 120:0.48265896 121:0.35260116 122:0.43545279 123:0.48265896 124:0.44797688 125:0.5327553 126:0.45953757 127:0.58766859 128:0.45953757 129:0.68208092 130:0.4672447 131:0.5867052 132:0.46339114 133:0.53179191 134:0.46242775 135:0.48073218 136:0.45183044 
